0.2 601 51 10
0.700759
0.021663
-0.541924
0.195817
0.403381
-0.747477
-0.051035
-0.338913
0.040399
-0.600406
0.703423
0.242537
-0.474154
-0.492632
-0.516591
0.395264
-0.972545
-0.224969
0.269420
0.470493
0.324924
-0.294154
0.711295
0.413561
-0.194802
0.814729
-0.633072
0.334780
-0.618537
-0.939848
0.559142
0.024926
-0.782669
-0.115939
-0.242266
-0.437437
0.006367
0.801717
-0.634083
-0.364193
-0.117673
-0.942487
-0.156869
-0.056539
-0.980163
-0.766320
-0.184247
-0.271733
-0.286924
-0.859461
-0.318111
0.020025
0.123944
0.734418
0.024547
0.450898
0.633725
-0.780814
-0.550996
0.493923
-0.382340
-0.626073
0.687206
0.009636
-0.027151
0.083633
0.941062
-0.631338
-0.035241
0.107330
-0.038197
-0.706433
-0.179433
-1.002839
0.218588
0.533870
-0.774562
-0.161321
0.802201
-0.243642
-0.330155
0.538159
0.259002
0.479268
0.218071
0.623870
0.945973
-0.189623
0.929362
-0.310492
0.297750
-0.567700
-0.813225
-0.508581
-0.838096
-0.090392
0.398466
0.329463
-0.299399
0.538814
-0.273401
-0.229564
0.830725
0.868188
-0.968970
0.477439
0.487153
0.627861
-0.604577
0.253212
0.170571
-0.083779
0.873148
0.617001
0.265482
0.357195
-0.587178
-0.519416
-0.599235
0.049431
-0.631196
-0.392518
0.863953
0.645236
-1.067213
0.729867
-0.703725
0.141642
-0.372430
-0.001650
0.679170
-0.209209
-0.982160
0.630357
0.052337
-0.277746
0.621581
0.549543
0.543475
0.500283
0.556303
-0.598510
0.337516
-1.030217
0.705935
-0.202726
-0.198655
0.836425
-0.490113
0.477735
0.742755
-0.674240
0.891474
-1.006733
0.975320
-0.641650
-0.855068
-0.707745
-0.131867
-0.857505
0.768134
0.817278
-0.561871
-0.708510
-0.759197
0.476930
-0.271489
0.834109
0.385228
0.085775
-1.015265
0.143101
-0.154509
0.830238
-0.837626
-0.649901
0.007778
-0.990489
-0.982016
-0.636867
0.944483
-0.711076
0.179023
-0.672661
0.630807
-0.312734
-0.260883
-0.536797
-0.153019
-0.062326
0.276715
0.532523
-0.488667
-0.331037
0.142499
0.151054
-0.749792
-0.180837
-0.472198
-0.805462
-0.951041
-0.684240
-0.401946
0.830713
-0.491234
0.107781
-0.001275
-0.565319
0.302656
-0.895284
0.736726
-1.101018
-0.051441
0.669155
-0.629739
0.677561
-0.913956
-0.362575
-0.210332
0.125182
0.623603
0.174878
-0.862253
-0.967095
-0.115062
0.713434
-0.388798
-0.594953
0.910490
-0.229267
-0.161049
-0.718438
-0.315810
-0.399735
-0.968282
-0.865296
-0.641461
0.202780
0.907976
-0.238983
0.441286
-0.146475
-0.269881
-0.480307
0.412168
-0.128983
-0.241005
-0.276334
-0.016159
-0.632112
-0.077367
0.352180
-0.436071
-0.662161
0.540574
-0.948644
-0.888222
-0.043909
-0.007591
0.253739
-0.574222
0.373106
-1.145407
-0.655403
0.748816
0.522556
-0.140888
0.015201
-0.568008
-0.383532
0.437734
-0.153782
0.193145
-0.022575
0.453444
0.815921
0.772430
0.648439
-0.786954
-0.590696
0.688000
0.942664
0.484395
-0.820732
-0.246859
-0.956623
0.366870
0.045602
0.043765
0.793020
0.812377
-0.479879
0.693017
-0.537166
-0.635639
-0.974282
-0.331923
-0.390414
-0.231914
0.579622
0.145703
0.623067
0.299081
0.555509
0.764152
0.478393
0.012789
0.044061
-0.699064
0.684397
-0.432544
-0.385548
0.627655
-0.850491
0.145138
0.072145
-0.609151
0.752570
0.130276
-0.966561
0.739933
0.050296
-0.107580
-0.194008
-0.880397
0.273555
0.871422
1.081976
-0.456062
-1.048476
-0.110183
0.366195
0.754234
0.940693
0.022794
0.645775
0.555918
-0.688292
-0.478976
-0.875344
0.389365
0.663671
-0.299320
-0.382178
0.579898
0.542691
0.715219
-0.263626
-0.816836
-0.056705
-0.887566
0.113132
0.154334
-0.239047
-0.074047
0.151545
0.508668
-0.411783
-0.574670
-0.819477
0.058634
0.630299
-0.080054
-0.135122
0.666665
0.838410
0.027349
-0.565817
-0.307283
-0.351881
0.320672
-0.641551
-0.407298
-0.371128
-0.592091
0.825969
0.537313
0.098715
-0.194804
0.348004
-0.564624
0.756872
-0.585144
0.456798
0.795936
-0.104017
0.632551
-0.963803
0.404508
-0.441066
-0.500338
-0.087496
-0.017818
0.526764
-0.004717
-0.495710
-0.008222
-0.704036
-0.721390
0.205599
-0.114805
0.075614
-0.150395
0.159739
0.079764
0.133117
-0.765198
0.127508
-0.032909
0.439840
-0.117304
-0.711875
0.910976
-0.165560
0.769074
0.515415
-0.723401
-0.136323
0.222988
-0.759288
0.824259
-0.993142
-0.370027
-0.737426
-0.507162
-0.100243
-0.031793
-0.357835
0.213758
0.551860
-0.610226
0.546935
0.252343
-0.299892
-0.357744
0.148208
0.032163
-0.635943
-0.434920
0.489195
0.510077
0.751351
-0.777646
0.770834
0.236040
-0.570065
0.314910
0.340800
-0.311372
-0.732263
-0.275709
-0.358156
-0.680894
0.917510
-0.912482
0.618243
-0.977382
-0.274043
0.255579
0.407102
-0.804069
0.704766
-0.349344
0.394588
0.173054
-0.599419
-0.445883
-0.825535
-0.762121
0.588437
0.276514
0.297104
0.615943
-0.298211
-0.773903
0.598645
-0.231592
0.280266
0.990828
0.137289
-0.171421
-0.318164
0.669637
0.673067
0.857837
0.427718
-0.532806
-0.936752
-0.554533
-0.442819
-0.762656
0.879859
-0.147915
0.504891
0.746362
-0.463957
0.119309
-0.478696
0.164432
0.347460
0.353783
-0.429787
-0.876816
0.630447
0.361520
-0.329922
-0.054930
0.757644
-0.808077
0.196011
-0.164471
-0.181978
0.462724
0.365162
0.165592
-0.419528
-0.185438
0.672711
0.218822
0.387647
0.591555
-0.100253
-0.337174
-0.867289
0.703126
0.076850
0.178040
-0.112147
-0.383905
0.492503
-0.772329
-0.835869
-0.153366
-0.876447
-0.308973
-0.186157
-0.859403
0.447988
-0.993876
-0.627707
0.676904
-0.462567
-0.084991
-0.190826
-0.060987
-0.247900
1.018028
0.888025
0.649182
0.685179
-0.092127
0.460533
-0.351407
0.184801
-0.748392
-0.732010
0.158713
0.390223
-0.622258
-0.445371
-0.886799
-0.414248
-0.526652
-0.272424
-0.244364
0.339171
0.817394
-0.406258
-0.231050
0.922293
-0.146067
-0.640836
0.623304
0.427815
-0.921507
0.468057
0.029327
-0.771773
-0.249170
0.049809
-0.850418
-0.166998
1.044681
0.815218
0.199825
-0.542571
-0.285058
0.772366
-0.098502
-0.419410
0.232974
0.795406
0.816661
0.408396
-0.652500
0.466212
0.992607
0.359764
0.407367
0.384285
-0.943741
-0.773493
0.096169
0.764143
-0.283591
0.139872
0.846881
0.187577
0.554266
0.355130
0.902808
-0.529542
-0.014426
0.684169
-0.099056
-0.965850
-0.430558
-0.568010
0.563016
0.862542
0.442052
-0.728943
0.244784
-0.777317
-0.779241
0.293859
0.569750
0.446110
-0.834846
-0.058148
0.707363
0.847964
0.116882
0.538917
0.082931
-0.511818
-0.626599
0.527588
0.988502
0.197711
-0.803013
-0.578456
0.863871
-0.336307
0.976074
0.262560
-0.173338
-0.126916
0.920610
0.861592
-0.938801
0.833301
0.746816
0.017391
-0.400907
-0.559077
-0.446383
-0.455622
0.032455
-0.511769
0.937836
-0.418098
-0.174786
-0.053427
-0.087022
0.524354
0.653061
0.742640
0.558834
0.742600
0.328183
-0.768362
-0.868405
-0.660325
-0.469209
0.785924
-0.422323
0.365681
0.666817
0.241538
-0.702161
0.810115
0.999818
0.134289
0.369984
0.015051
0.141604
0.832172
0.999406
-0.488854
1.017991
0.508450
-0.806154
0.702740
0.434906
-0.371106
0.724712
-0.853314
0.798130
-0.897684
-0.715478
-0.165952
-0.975432
0.684614
-0.488045
-0.055767
-0.776528
0.120548
0.659707
0.045794
-0.837234
-0.771567
-0.276419
0.589790
-0.281895
-0.230057
0.391773
0.529543
-0.485348
-0.032311
0.203640
0.243487
-0.268349
-0.031393
-0.129827
-0.401042
0.883924
-0.325333
0.371713
-0.150572
0.209180
0.330133
-0.351146
0.084224
0.272973
0.571244
-0.299553
0.083803
-0.970633
0.007498
-0.890638
-0.180741
-0.047825
0.446676
-1.071419
0.025867
-0.143266
0.555037
0.797528
0.851143
-0.071262
-0.911108
-0.563592
0.525308
0.254413
-0.066394
-0.932507
1.055141
0.142094
-0.097119
-0.541097
0.903260
-0.126014
-0.552849
-0.952454
0.740235
-0.751138
-0.693294
0.192113
-0.736452
-0.391881
0.484058
0.902150
0.061023
0.651274
0.852716
-0.302022
-0.350888
-0.703583
0.089875
-0.045311
0.705103
0.209136
-0.739942
-0.902620
-0.171907
-0.835253
0.424477
-0.318051
-0.427356
-0.549931
0.968477
-0.171028
-0.354817
-0.140344
0.429754
-0.029668
0.540269
0.471384
0.843649
0.405545
1.043158
-0.649643
0.227413
-0.364871
-0.176130
0.311616
0.115345
0.441488
0.775800
0.356247
0.371075
-0.758036
-0.881376
0.767672
0.221335
-0.904979
-0.435306
0.499730
-0.074944
0.299831
0.741018
0.370692
0.769047
0.983179
0.661058
-1.034499
0.497597
-0.679689
0.208410
0.966484
-0.509078
0.489834
0.852914
0.884662
0.034962
-0.757726
0.863620
0.368202
0.122116
0.834840
0.452273
-0.308649
0.544121
-0.341521
0.333642
-0.409983
0.233657
0.009070
0.522307
0.271425
-0.687797
0.727342
-0.243185
-0.769986
-0.036151
-0.486817
-0.946006
-0.705346
-0.678613
0.553266
0.305032
0.948239
-0.108967
-0.095493
-0.374478
0.166318
-0.635897
-0.544316
0.480352
-0.105383
-0.086230
-0.238697
0.585632
-0.411965
0.819791
-0.680979
-1.007776
1.004075
0.502692
-0.592440
0.264590
-0.565625
-0.358077
-0.278654
-0.543515
0.290118
0.480507
-0.940173
-0.374896
0.554375
-0.705709
0.137131
-0.162710
0.487932
-0.819995
0.127866
-0.693670
-0.237661
-0.265062
-0.404060
-0.534062
-0.727441
-0.031841
-0.219288
-0.555459
0.924841
-0.116971
0.567484
0.973140
-0.374234
0.701804
0.885659
-0.370272
-0.199692
0.697229
-0.158321
0.719566
-0.228693
0.646407
-0.174635
0.189288
0.210345
0.383438
0.716552
0.377162
0.391858
-0.183688
-0.734101
0.451427
-0.666773
0.742799
-0.624563
-0.932916
-0.029667
0.174786
-0.382828
0.217613
0.094758
0.975173
-0.547028
0.241671
-0.662570
-0.876838
0.084972
0.352264
1.022392
-0.724863
-0.931748
-0.046094
0.655439
-0.891693
0.621983
0.892625
0.860640
-0.609975
0.276914
-0.485143
0.068521
0.342931
0.606776
-0.214023
-0.660480
-0.491684
0.505560
0.559136
-0.189655
0.904149
0.813848
0.162620
-0.231021
0.671110
0.086884
0.201263
0.195049
-0.831060
-0.387375
-0.668306
-0.050325
0.021633
0.848446
0.925157
0.892211
-0.732982
0.073951
-0.826897
-0.821998
-0.302042
0.683870
0.203122
0.115543
-0.370362
0.029914
0.040868
-0.838065
0.161012
-0.615866
-0.822877
-0.185485
-0.796590
-0.373056
0.489928
-0.424704
0.163786
0.254403
0.775624
0.698432
-0.406610
0.373087
0.973281
-0.585011
-0.208716
0.096762
0.261395
-0.834025
-0.091268
0.750720
0.164338
-0.049402
0.695410
0.269121
1.088045
-0.335992
-0.448723
-0.801634
-0.063303
-0.441543
0.703099
0.053715
0.084723
-0.074623
-0.204643
0.959888
-0.318342
-0.347770
-0.771854
0.028923
-0.951586
-0.210224
-0.948149
-0.218594
-0.011516
0.507494
-0.710159
0.173812
-0.763554
-0.955300
-0.653053
-0.955527
0.523286
-0.256930
0.679212
0.072485
0.637670
0.127052
-0.524167
-0.073281
0.368589
-0.827356
0.426372
-0.610774
0.574728
0.803774
0.820511
0.367158
0.724790
0.563937
0.115271
0.327835
-0.778982
-0.998453
-0.630846
0.218671
-0.900771
0.839380
-0.670273
-0.339160
-0.482645
-0.908130
0.095676
-0.218360
-0.094578
-0.157008
-0.782406
0.106849
0.386883
-0.057720
0.252325
-0.345578
0.199578
0.894717
0.375404
0.354911
-0.341991
-0.513186
-0.902697
-0.107781
0.085675
-0.392453
0.949754
-0.255139
-0.165597
-0.188560
0.191605
0.863690
0.237809
0.132512
0.417855
0.971001
0.270513
-0.464483
-0.944547
0.471754
0.980234
0.833847
0.931372
-0.533119
0.928272
0.750780
0.489453
-0.537083
0.787586
-0.553996
0.566269
-1.076742
0.233410
0.933411
0.043134
0.419788
-0.799088
-0.161102
0.271762
0.437975
0.080171
0.591668
-0.236174
-0.217583
0.339813
-0.763458
0.789789
-0.371547
-0.810539
0.506336
0.799041
-0.828065
-0.848681
-0.875634
-0.687287
0.260053
-0.799573
-0.518842
0.607542
-0.266041
0.337378
-0.297358
-0.618975
0.014050
0.563346
-0.848174
0.155579
0.788478
0.330405
0.255370
0.376844
-0.084921
0.199648
0.910707
0.896743
0.475347
-0.783626
0.721428
-0.498026
0.944921
0.338189
0.928773
-1.027145
-0.814689
0.844931
-0.938709
-0.966273
-0.841788
-0.152358
-0.516689
0.206340
0.404668
-0.682663
-0.113726
-0.043875
-0.272267
0.568379
0.838062
0.976441
-0.734187
-0.180825
0.653149
-0.935495
0.273682
0.318729
-0.067961
0.193643
0.768297
-0.124253
-0.539714
-0.858870
-0.594630
-0.073290
-0.897365
0.865043
0.697413
-0.126810
-0.106557
0.788596
-0.875592
0.707925
0.216909
-0.729583
0.382741
0.910904
-0.599204
0.184391
0.530663
0.298009
0.078899
0.042956
-0.147475
0.227409
-0.079230
-0.204033
0.614202
-0.906378
-0.759668
-0.898518
-0.908049
-0.180268
-0.637124
0.588970
0.974575
-0.712894
1.074020
-0.208211
-0.589430
0.292202
1.017991
-1.145445
0.367842
-0.381646
-0.282510
0.813549
-0.277914
-0.415305
0.053191
-0.067231
-0.048578
0.337489
0.252955
0.763535
-0.273701
0.248405
-0.527113
-0.343494
0.872601
1.062242
0.285536
-0.880189
-0.348173
-1.029304
0.992633
0.136060
0.179944
0.156180
-0.338184
-0.822557
0.893439
0.190837
0.002528
-0.503686
0.406434
-0.356989
-0.673964
0.810397
-0.309377
0.118982
-0.678019
0.900094
0.886000
-0.414464
-0.906638
-0.843888
-0.627840
-0.111843
-0.910990
-0.328914
0.576158
-0.487562
0.317471
-0.113520
0.246295
0.474014
0.319809
-0.747980
-0.446972
0.220574
-0.256786
0.595599
0.349691
0.883635
-0.683914
-0.153192
-0.424891
-0.601797
-0.039369
-0.634792
0.830638
-0.861695
-0.505950
0.182880
0.088850
-0.412809
0.394363
-0.707641
-0.472207
0.971494
-0.044688
-1.005761
0.608507
0.424388
-0.435646
1.018471
-0.945541
0.902525
0.519491
-0.827779
-0.442632
-1.095509
-0.550254
-0.108508
-0.408902
-1.016144
0.276742
0.156038
0.115824
-0.353159
-0.703767
0.433198
0.445740
-0.610302
-0.203540
-0.883395
0.593453
0.015012
0.165201
-0.809382
-0.484449
-0.302338
-0.713447
-0.800661
0.141717
-0.133485
0.625343
0.904209
-0.047646
-0.282305
-0.829952
1.039696
0.746872
-0.696189
-0.852457
-0.506256
-0.038506
-0.446935
-0.467338
-0.942446
0.622135
-0.139393
0.401198
0.423125
0.228742
0.739890
0.407903
-0.354871
-0.924494
0.495804
0.097628
-0.736335
0.680117
0.487439
-0.059189
0.251792
0.219487
0.922804
-0.848499
0.914962
0.740199
-0.213251
0.255131
-0.147242
-1.052685
-0.584039
-0.054398
0.396149
0.521356
-0.951022
-0.082553
-0.457575
0.142158
-0.382105
0.295960
0.711892
0.051041
0.218290
0.879629
-0.891537
0.097177
-0.440701
-0.088487
0.714469
-0.856398
0.744268
-0.161426
0.191391
-0.979427
0.700511
-0.351836
-0.043030
0.716182
0.845387
0.449800
0.034942
0.828352
-0.073785
-0.279968
-0.350679
-0.225917
0.195270
-0.052210
-0.108709
-0.109156
0.829017
-0.935689
0.030312
-0.205963
0.741363
-0.734751
-0.971189
-0.345185
0.355177
0.136730
-0.677046
-0.827246
0.061767
0.521142
0.701117
0.644969
-0.128013
0.013499
-0.815501
-0.493054
-0.626212
0.158858
-0.557080
-0.652897
0.296238
-0.761495
-0.427594
0.985755
-0.159679
-0.571795
0.810583
-0.178263
-1.022724
-0.866827
0.321362
-0.276856
0.535432
-0.256914
0.420045
0.799630
0.138356
-0.140778
-0.840628
-0.534254
-0.307377
0.236309
-0.958706
-0.649531
0.840806
-0.743331
-0.152334
0.636555
0.736563
-0.741769
0.419901
0.342741
-0.465612
0.436841
0.460734
0.396852
-0.119718
0.119125
-1.016070
-0.102889
0.007342
0.604764
-0.425060
-0.684930
0.583172
-0.168010
0.177273
-0.651276
-0.274539
-0.103170
0.903642
-0.909208
-0.231303
-0.058730
-0.830992
-0.226434
0.036555
0.905474
0.852740
-0.071010
0.416997
0.010548
0.931583
-0.329695
-0.026211
-0.222557
0.434704
0.575824
-0.641911
0.445644
0.643245
0.808285
0.145040
0.686159
-1.007430
0.649352
0.196951
0.454243
-0.615418
-0.621274
0.135721
-0.482018
0.432317
0.841408
0.854296
0.927556
-0.270448
-0.839821
-0.780714
-0.905696
-0.412399
-0.244051
-0.871053
0.881757
0.480869
0.767885
-0.860582
-0.374921
-0.493740
0.741948
0.112703
-0.930764
-0.165377
-0.516015
0.615161
0.005149
0.996209
0.198218
0.548878
-0.811008
0.463473
0.968592
-0.174218
-0.787739
0.653084
-0.683410
0.132530
0.000796
-0.205857
-0.413330
0.942718
0.881916
-0.004595
0.131974
0.758606
0.405947
0.249080
-0.503254
0.291130
0.364713
-0.423768
-0.816208
0.851559
0.496499
-0.401960
0.226568
-0.204283
0.789238
0.574376
-0.784314
-0.751961
-0.638596
0.648585
0.357582
-0.197069
-0.099280
-0.821211
-0.899464
0.376693
0.277602
0.595179
-0.732925
0.661781
0.885087
-0.284899
0.828841
0.849787
1.094510
-0.061410
0.180715
-0.791097
-0.918886
0.697804
-0.846437
-0.863673
-0.314950
-0.100806
0.679317
-0.782802
-0.658005
-0.934631
0.686418
0.060141
0.041049
-0.158858
0.481159
-0.704500
0.935163
0.033776
-0.495891
-1.074677
0.527219
0.194362
0.455157
-0.890968
-0.850971
0.363179
0.757208
0.828573
0.676248
-1.001851
-1.036274
0.761727
0.260943
-0.621059
0.028861
-0.323564
-0.977872
-0.133818
0.677774
0.853983
0.199795
0.954348
0.287476
0.846180
-0.484239
-0.499556
0.293937
-0.844236
0.228689
-0.159372
-0.404964
-0.138500
0.395023
-0.913946
-0.815901
-0.396417
-0.531539
-0.959789
-0.811407
0.770869
0.190009
0.563002
0.546133
0.924441
0.023203
-0.222999
-0.382475
-0.499889
-0.802452
0.384725
-1.013413
-0.448661
-0.343853
-0.921202
0.907661
0.481450
1.020113
-0.640410
-0.175733
-0.848491
-0.808778
-0.493362
-0.748755
-0.627397
-0.398238
-0.609291
-0.552220
-0.422459
0.320423
0.750844
0.461619
-0.459888
0.611546
-0.687445
-0.939181
-0.589748
-0.576356
-0.599212
0.853459
-0.583084
-0.216436
0.840114
-0.888662
0.191088
-0.702597
-0.077571
0.452811
0.213302
1.033744
-0.963960
-0.208861
-0.645268
0.151841
-0.687285
-0.460902
-0.109704
0.259486
-0.824262
0.072178
0.277088
-0.027695
0.103175
-0.325339
0.892943
0.210877
0.838961
0.956199
-0.620075
-0.202364
0.552122
-0.474080
-0.073620
-0.952030
0.657912
0.834899
0.390244
0.068348
-0.995551
0.926334
0.256766
0.912867
0.184854
0.358155
0.603918
-0.232303
-0.952475
-0.883084
-0.342898
-0.171598
0.793677
0.027339
-0.123926
-0.369382
-0.682222
-0.864662
0.415587
-0.176747
0.557479
0.106092
-0.476194
-0.930968
0.273588
-0.631479
-0.100025
-0.920326
-1.004059
-0.122904
0.746763
-0.173075
-0.590360
-0.466198
-0.740755
-0.301687
0.850301
0.309801
-0.441723
-0.123178
0.208601
0.926443
0.029992
-0.751557
0.956905
0.108585
-0.002954
-0.314088
0.330931
0.226855
0.821850
0.371142
-0.694432
0.876151
-0.770890
0.032155
-0.222380
0.592792
-0.717415
-0.532378
-0.655879
-0.646047
-0.837154
0.847518
0.353000
-0.831367
-0.463268
-0.925626
0.654953
0.559312
-0.567287
0.153238
-0.149489
0.007696
0.899869
0.405756
-0.807549
-0.558074
-0.387266
-0.115358
0.615208
-0.732973
0.662459
-0.557987
0.122396
0.093510
1.013251
-0.182378
-0.195303
0.553547
0.552060
0.439901
0.213741
0.647238
-0.984103
-0.292221
0.308074
0.026727
-0.267091
0.467922
-0.047947
0.243868
-0.464069
-0.925827
0.673304
-0.680005
-0.766011
-0.048430
0.842002
0.000223
-0.881514
0.810580
-0.638440
0.626102
0.789405
-0.266144
0.679965
-0.417387
0.972724
-0.847706
0.455673
-0.924696
-0.244557
-0.090309
0.693148
0.955202
-0.143054
-0.611399
-0.731719
0.310046
0.645903
0.126245
0.438343
0.318438
-0.632092
0.170539
0.708172
0.560956
0.850088
0.348747
-0.665332
-0.118698
0.717905
0.138747
0.417284
-0.754548
-0.145838
0.423773
0.748505
-0.908186
0.031839
0.463165
0.442946
-0.052019
0.928891
0.241743
0.305054
-0.469397
-0.758333
-0.570447
-0.104183
-0.930465
-0.447628
-0.365378
-0.867097
-0.948500
0.484619
0.420655
0.502526
0.254561
0.339878
0.217865
-0.632008
-0.220198
-0.790673
0.020904
0.860196
0.868496
0.795832
-0.546204
-0.665686
-0.665505
0.559570
0.372159
-0.099436
-0.413124
-0.607460
-0.661128
-0.384705
-0.933104
-0.742076
0.402437
-0.880495
0.450625
0.094471
-0.684917
0.034705
-0.351311
-0.078075
0.616740
0.727887
0.340013
0.253965
-0.750487
0.750963
-0.056621
0.520127
0.594718
0.799617
0.820694
-0.716288
0.453067
0.043977
0.997738
0.109517
-0.775605
-0.673279
-0.922584
-0.146076
0.721548
0.539065
-0.182348
0.712068
-0.179587
-0.695314
0.248039
0.384250
-0.060422
0.883329
0.227992
0.014572
0.504167
0.790539
0.028438
-0.736694
-0.578127
0.583159
0.504616
0.648304
-0.603502
-0.003872
-0.745529
0.197952
-0.847425
-0.562159
-0.794329
1.014224
0.213900
0.977270
0.053342
0.399516
0.270029
0.358749
0.002807
-0.389873
0.438817
-0.561062
-0.086487
-0.330206
-0.297021
-0.957731
0.790178
0.842935
-0.157510
-0.240935
0.382648
-0.086226
-0.581935
-0.815878
-0.143957
0.653102
0.381947
-0.139782
0.244686
-0.230354
-0.701325
-0.789891
0.831347
-0.442179
-0.322837
-0.011894
0.449022
-0.577976
-0.291498
0.104034
0.224596
-0.132378
0.945134
-0.283148
0.687093
-0.911114
0.115804
0.209466
0.398061
0.499004
-0.318720
-0.096582
0.182719
-0.054114
0.883291
0.311165
0.031211
0.166585
0.327788
0.796584
0.141693
0.153412
-0.788025
0.119211
-0.438607
0.447919
0.778200
0.966945
-0.074205
0.588080
0.850936
0.651778
-0.984963
0.197428
0.560208
0.613922
-0.086564
0.268353
0.091995
-0.299600
0.316471
0.826064
0.951833
0.473548
-0.316419
0.974584
0.623069
0.213610
0.634822
-0.351533
-0.503465
0.152741
-0.681899
-0.250892
-0.388278
0.135868
-0.265336
-0.890617
0.890242
0.053122
-0.735662
0.786598
-0.078760
0.472881
-0.471126
0.471636
-0.331889
0.919731
-0.430554
0.038358
-0.406217
-0.275435
-0.877833
0.797590
0.777482
0.730973
0.512594
0.379734
0.270478
-0.205468
-0.691825
0.775019
1.007683
-0.536179
0.223165
-0.926210
-0.948970
0.676682
-0.435771
0.169118
0.045603
0.341217
-0.105993
0.552278
0.448634
-0.419754
0.697682
-0.824715
-0.318102
0.882875
0.281068
0.942676
-0.432160
0.656495
0.153245
-0.546074
-0.530719
0.035723
-0.911708
0.207889
-0.578673
-0.854798
-0.374906
0.052340
0.473861
0.216955
-0.564966
0.443538
-0.190105
-0.801729
0.623024
-0.026957
-0.005303
-0.528379
0.416075
0.377844
-0.495354
-0.812715
0.154361
0.194678
-0.756971
-0.808828
0.435211
-0.527096
-0.807571
-0.697175
-0.102488
-0.163428
-0.754314
-1.155831
0.962388
0.630647
-0.080561
-0.691872
0.357897
0.136485
0.390651
0.575802
0.079867
0.544159
-0.518333
0.666311
-0.626580
-0.324663
0.421206
-0.450011
0.313895
0.525466
0.662370
-0.949633
-0.460342
-0.902355
-0.333599
0.585082
-0.146052
-0.839034
-0.400662
0.554076
0.494188
0.995128
-0.881211
0.810011
-0.032163
0.569658
0.810633
-0.705888
-0.228459
0.598827
-0.648461
-0.031814
-0.098467
0.842147
-0.679447
-0.658988
0.011828
0.082071
-0.702991
-0.255307
-0.016681
-0.766175
0.024125
-0.170075
-0.514565
0.132168
-0.467695
1.014459
-0.099801
-0.573552
0.763114
0.349998
-0.630302
0.793941
-0.462361
-0.621339
-0.580348
0.281140
-0.968809
0.115020
-0.807543
-0.334263
0.786610
-0.903808
-0.937247
0.929401
0.630488
-0.765745
0.330613
-0.650103
0.057738
-0.554193
-0.802473
0.285053
-0.371411
-0.076005
-0.067652
-0.438544
-0.406298
0.300494
-0.775916
-0.596125
0.205839
0.586634
0.150127
-0.969124
-0.736118
0.675591
-0.840842
0.736289
-0.807694
0.930045
-0.890749
-0.579676
0.146204
-0.606192
0.325924
-0.498618
-0.513365
-0.352257
-0.447828
-0.782118
0.258885
0.197280
0.580995
1.003414
0.478037
-0.989070
0.828568
-0.618316
-0.137050
-0.328436
-0.334353
-0.349286
0.851867
0.064146
-0.788617
0.314012
-0.947345
0.512519
-0.706966
0.632146
-0.166565
-0.698804
0.120519
0.627836
-0.983951
-0.231791
-0.377469
-0.423170
-0.463167
-0.516909
0.780825
-0.400773
0.933952
1.067386
-0.213438
0.929522
-0.508199
0.498131
1.088030
-0.361668
-0.270444
-0.142493
0.194891
-0.927706
0.661639
-0.512484
0.418460
0.875340
0.380006
-0.470625
-0.084078
0.151335
-0.066615
0.135919
-0.398748
-0.247574
0.160246
-0.736028
-0.832228
-0.774372
-0.225513
-0.092568
-0.577031
0.050081
0.948252
-0.510202
0.135292
-0.481058
0.636044
-0.379512
-0.571216
-0.734686
-0.279805
0.278654
0.708311
0.018036
-0.475924
0.973414
0.586889
-0.596174
-0.909668
-0.566387
0.381247
0.203502
0.255187
-0.851395
-0.831654
-0.119941
-0.654231
-0.733371
-0.943854
0.300156
0.505587
-0.346512
-0.627251
-0.929988
-0.423240
0.907108
0.860856
-0.877791
-0.508264
0.836408
-0.084231
-0.642961
0.085488
0.616509
-0.659648
-0.086808
-0.259833
0.108094
-0.014030
-0.117480
-0.954600
0.245590
0.263402
0.402125
0.401425
-0.641952
0.693489
0.715969
-0.521043
0.045920
-0.655241
0.345544
0.561231
-0.859376
0.293849
0.670566
-0.593776
-0.147661
0.538771
-0.899725
0.458408
-0.887611
-0.928421
-0.861527
-0.811985
-0.317502
-0.131360
-0.694445
0.222647
0.399672
0.213050
-0.252772
0.710795
0.732771
0.346797
0.714353
-0.234154
-0.636469
-0.639842
-0.207782
0.769188
-0.747370
0.667681
-0.835859
-0.899456
-0.348954
0.454791
0.458898
0.084966
-0.343681
0.002400
-1.056774
-0.883355
0.785917
-0.407838
-0.185336
0.514522
-0.566019
-0.879902
0.112786
-0.435409
0.342423
0.925438
0.384667
-0.795558
0.169134
-0.212140
-0.400747
-0.236110
0.884840
0.905572
0.151017
0.506217
0.796702
-0.540818
-0.376389
0.254340
0.598198
-0.546698
-0.172638
0.277498
0.233657
-0.920038
-0.002109
-0.341765
0.486597
-0.191252
0.006529
-0.525239
0.593144
-0.234124
-0.092645
-0.027953
-1.001056
-0.888479
0.898556
0.842100
-0.471822
0.243384
0.844960
0.467315
-0.631903
-0.952660
0.068814
0.506356
-0.131661
-0.754137
0.619283
-0.507427
0.477956
-0.810723
0.043579
0.300104
-0.539498
-0.826439
0.649153
-0.264503
0.197747
-0.379561
0.731692
-0.458649
0.058872
0.995893
-0.074077
0.610774
-0.135237
0.725328
0.188250
-0.020509
0.763978
0.790202
0.783573
-0.492117
0.652601
0.782556
0.036147
0.521893
-0.194274
-0.838899
-0.051581
0.970491
0.586889
-0.879918
0.580270
-0.778024
0.710844
-0.673902
-0.007666
0.624977
-0.672157
-0.866851
0.851659
-0.676637
-0.660440
-0.190041
0.649315
0.503718
-0.170206
0.398197
-0.834015
-0.525187
-0.114055
-0.324473
0.027751
0.648324
-0.447584
-0.653322
-0.670756
-0.134991
-0.464000
0.193176
-0.897873
-0.663077
0.212127
0.843069
-0.307684
0.157249
-0.696366
0.949707
-0.044759
-0.337694
-0.439827
-0.334693
0.388643
-0.164452
-0.483932
-0.897650
-0.443534
-0.519763
-0.629028
-0.706690
-0.275922
0.140629
-0.744746
-0.531830
-0.209010
-0.288190
-0.037687
-0.033648
0.250725
0.115219
-0.469680
0.365310
0.015461
-0.111195
-0.702168
0.824049
-0.881443
-0.972798
0.068102
-0.259716
-1.044528
0.287686
0.462316
-0.719774
-0.115656
-0.385739
-0.552966
-0.412236
0.374499
-0.336184
0.899479
0.453527
-0.025632
-0.865892
-0.134939
-0.252520
0.303501
-0.919533
-0.876114
-0.720763
-0.555748
0.301804
0.283729
0.870823
0.741815
-0.229084
-0.831826
0.409608
0.672562
0.162772
-0.051311
-0.634556
0.328467
-0.613859
0.673752
0.928782
-0.793120
-0.671805
0.847856
-0.682318
0.846819
-0.521205
0.339695
0.488079
0.737399
0.522884
0.931731
0.090076
0.853434
-0.481516
-0.132371
-0.649402
0.603534
-0.566413
-0.697489
0.929725
0.687698
0.229197
-0.413484
0.379967
-0.561310
0.121512
-0.190537
1.003510
0.069995
0.645518
0.406741
0.595538
0.433926
0.674718
-0.465162
0.316036
-0.675162
0.157852
0.106147
-0.167533
-0.413285
-0.714411
0.197369
-1.003171
0.366455
0.140870
0.026138
-0.526894
0.293920
-0.250041
0.529017
-0.147527
-0.553337
-0.439756
0.910482
-0.719463
-0.557843
-0.959610
0.424261
-0.275696
0.581531
-0.811468
0.414862
-0.739684
0.255679
-0.958675
0.485786
0.762685
-0.199776
0.798702
-0.795688
-0.693863
-0.752510
0.120730
-0.967003
-0.660836
0.585383
-0.787656
-0.009155
-0.134775
0.400272
0.157761
0.244344
-0.749543
-0.264779
0.698401
-0.097311
0.794366
-0.224629
0.740937
-0.781515
-0.564584
-0.367918
0.928427
0.810580
-0.934627
-0.886997
-0.288408
-0.926643
-0.394612
-0.812907
-0.172547
-0.054395
-0.808181
0.316763
-0.972617
-0.963801
0.361659
0.511138
-0.825028
0.875241
-0.749023
0.992633
-0.422719
-0.214089
0.751353
0.460810
0.030462
0.870773
-0.284349
-0.590005
-0.966949
-0.823166
-0.693435
0.633895
0.686160
0.458965
0.629177
0.164555
-0.411807
0.603349
0.910274
-0.906812
0.973691
-0.920549
-0.841365
0.078076
0.696260
-0.373343
0.117289
-0.306149
0.487490
-0.692493
-0.466133
0.445350
0.339215
0.098189
0.308422
0.760359
0.787949
0.798381
-0.137288
0.263883
-0.741917
0.475725
0.406642
-0.949301
-0.139416
0.880118
0.813466
-0.686280
0.387002
0.712686
-0.417046
-0.768734
-0.127264
0.690005
0.186032
-0.571866
-0.778678
-0.749370
0.507237
-0.294819
-0.518872
0.409274
-0.061174
0.692331
0.114547
-0.426624
0.668784
0.336923
0.743831
-0.866962
0.739225
0.841901
-0.551962
0.621470
-0.584809
-0.593714
-0.903346
0.647394
0.346382
-0.562275
-0.602658
-0.053563
-0.958175
-0.989142
-1.045130
-0.825233
-0.660326
-0.330292
0.719130
0.629625
0.750015
0.817760
-0.886651
-0.558226
-0.792229
0.775283
0.385895
-0.213026
0.597586
0.384861
0.462244
0.090410
-0.270533
0.614339
0.569225
-0.987812
-0.459398
0.748699
0.481478
0.271303
0.619826
-0.833262
-0.450304
-0.912114
-0.361605
-0.360466
-0.719522
0.683395
0.954200
-0.036609
0.682553
0.617632
-0.698167
0.445996
0.290209
-0.115356
0.315840
0.637945
-0.629318
0.164718
0.153742
0.595367
0.149910
-0.672368
0.476304
0.485460
-0.750021
0.154779
-0.474986
0.666826
-0.153082
-0.295028
0.400121
0.210749
-0.711929
0.830701
-0.335450
0.765453
-0.197862
-0.611711
0.191404
-0.625053
0.007169
0.602793
0.210663
0.536845
0.919778
0.561472
-0.230307
0.331365
-0.484604
0.617136
-0.638770
-0.015486
0.709370
-0.617428
-0.218429
0.309571
0.452989
0.833512
-0.116999
-0.258676
-0.252266
0.217619
0.115271
-0.760102
-0.718438
-0.067947
-0.165512
-0.433263
-0.968801
-0.550583
-0.901638
-0.902216
0.754644
0.975080
0.557706
0.835482
-0.885218
0.056349
-0.376396
0.194365
-0.728929
-0.519356
0.203217
0.034903
-0.195555
-0.593445
-0.939146
-0.213323
-0.575651
0.714312
0.284247
0.815790
0.758927
-0.039383
0.960392
0.001116
0.112245
-0.221035
-0.937548
0.296889
0.793841
1.003476
0.168172
-0.475784
-0.251591
-0.870231
-0.283453
0.346538
0.336881
-0.908338
-0.651339
-0.866014
0.008528
0.862739
0.305800
0.170173
-0.103772
-0.774438
0.194275
-0.004131
-0.439643
0.564087
-0.564944
-0.328226
-0.715348
-0.826025
-0.134206
0.587411
-0.620757
0.401231
0.486822
0.948260
0.462351
0.416766
0.331023
-0.239444
-0.652117
0.948738
0.626940
0.714476
0.075561
-0.037350
-0.569596
0.313359
-0.081667
-0.123207
-0.059361
-0.555404
0.628184
0.403481
-0.089455
0.434754
-0.816693
-0.343950
-0.985516
0.366940
0.234015
0.390332
0.875413
-0.230880
-0.025295
0.549467
0.043625
0.838550
-0.857869
-0.234949
0.438595
-0.651482
-0.778574
0.743911
-0.257548
0.008268
0.201628
0.037098
-0.942706
-0.271858
-0.719792
0.432550
0.763431
-0.171105
-0.497678
-0.612572
-0.839642
-0.437376
0.028450
-0.488779
0.468543
0.277274
-0.294708
-0.836062
0.294022
0.009536
-0.780239
0.316592
0.959625
0.175022
-0.318295
0.073648
-0.948495
0.498681
-0.764331
0.734959
0.213525
0.953298
0.224948
-0.124399
0.048447
-0.426274
0.054765
0.505456
-0.494623
0.656145
-0.481056
-0.630034
-0.353773
-0.503338
0.211717
0.519622
0.570203
0.654299
0.080393
-0.876811
0.477986
0.910009
-0.069009
0.881436
-0.051383
0.831679
-0.350669
0.825994
-0.118019
-0.072945
-0.432329
0.252459
-0.581978
-0.202603
-0.720041
-0.099230
-0.692009
-0.690967
0.517340
0.076333
0.282991
0.045354
-0.514047
0.353604
0.355439
-0.427047
0.239166
0.702770
0.669180
0.030653
0.489934
0.433495
-0.701893
0.469112
-0.721958
0.725106
-0.464946
0.163770
-0.520369
-0.096224
0.763189
-0.790448
0.691333
-0.750917
0.555958
-0.605117
0.586979
-0.268215
1.074529
0.052907
-0.819379
-0.834768
-0.751468
-0.173089
-0.904405
0.121694
0.218887
0.959848
-0.742899
-0.399993
-0.613443
0.333981
-0.914931
0.578733
-0.539119
0.423572
0.358861
-0.968032
0.690984
-0.245023
-0.245983
0.959459
0.332266
-0.627793
0.669453
0.744313
-0.234427
-0.397857
0.842106
-0.393596
0.510079
-0.911641
-0.426354
-0.015602
-0.922096
0.888356
-0.349934
-0.444411
-0.026905
-0.212045
-0.330824
-0.421022
0.584387
0.330285
-0.714177
0.732659
0.695132
-0.772613
-0.197961
-0.826747
0.409935
-0.183122
0.252883
0.048085
-0.593600
-0.873499
-0.348815
0.011285
0.524393
-0.710163
0.491413
0.438149
-0.672029
1.011243
0.017789
0.181289
-0.075314
0.890624
0.663701
0.179540
-1.104348
-0.397232
0.332176
0.842892
-0.099677
0.579120
-0.316940
-0.419882
-1.000381
-0.423261
-0.400578
0.741155
-0.596013
-0.170888
0.698552
-0.526504
-0.483829
-0.294160
0.906385
-0.241963
-0.754848
-0.599168
0.151027
0.875180
0.918564
0.875679
-0.114759
0.158242
-0.773941
-0.207274
0.699865
0.571090
0.206307
0.394139
0.687875
-0.484424
0.978160
-0.745843
0.292128
-0.405522
-0.780914
0.000655
0.270728
-0.504618
0.913010
0.278421
-0.017667
0.188338
-0.836712
0.459927
-0.107571
-0.814163
-0.147344
0.072022
0.121848
0.242847
-0.546803
0.497360
0.384773
-0.322896
0.918627
0.088358
-0.187841
-0.873234
0.513906
0.502485
0.432466
0.220247
0.763962
-0.083116
0.563341
-0.282230
0.702636
-0.168692
-0.216179
0.359732
0.852910
-0.094077
0.895152
0.281541
0.063908
0.879761
0.072636
0.319644
-0.903372
0.102683
-0.960828
-0.073073
-0.800754
-0.463826
-0.539138
0.261945
0.485500
0.202254
-0.503339
-0.494947
0.721427
0.016441
0.658094
0.984235
-0.313876
0.102654
-0.607755
0.568536
-0.014227
0.837407
-0.648462
-0.038178
-0.611296
-0.013999
0.242784
-0.471091
0.118560
0.295400
-0.602502
-0.127973
0.965628
0.210721
-0.599526
-0.008680
0.287272
-0.252726
0.829310
-0.053320
0.350374
-0.833280
-0.454473
0.155340
-0.877244
-0.895121
-0.927388
-0.017483
-0.404351
0.338684
0.482918
0.093852
0.041631
-0.521673
-0.451783
-0.686384
-0.800519
-0.722509
-0.395445
0.461736
0.277325
0.207638
-0.982680
-0.197988
0.248320
-0.616268
-0.937662
-0.703825
-0.986650
0.647050
-0.388986
-0.536143
-0.307792
-0.806705
0.811822
0.403875
-0.627590
-0.746262
-0.745702
0.708802
-0.168245
-0.431579
-0.086011
0.579787
-0.825362
0.361012
-0.771440
-0.987655
-0.368786
-0.130971
-0.791838
0.186569
-0.886611
0.359936
0.788108
0.355734
-0.841836
0.004109
-0.745320
-0.517353
0.621856
0.450659
0.914018
0.922926
-0.212246
-0.489494
-0.058280
-0.092937
-0.048963
0.710739
-0.563347
-0.573350
-0.002177
-0.833319
0.843512
-0.214031
-0.288453
0.637461
0.229464
0.983351
-1.040473
0.467869
-0.197134
-0.758190
0.738480
-0.669761
0.600875
0.448471
0.813730
0.609569
0.763510
-0.797213
0.553349
-1.019778
0.991443
-0.135045
0.500064
-0.428086
0.466851
-0.489331
0.716375
-0.932497
-0.136962
-0.002769
0.220382
-0.402942
0.226923
-0.339214
0.355452
0.752800
-0.005617
0.623039
0.986149
-0.636415
-0.497737
-0.155753
-0.788004
0.881188
-0.598738
-0.440411
-0.854648
0.199916
0.687812
0.280910
0.355247
0.622478
-0.695717
0.167461
0.183574
-0.107759
0.738200
0.568774
-0.967988
-0.723600
-0.517779
0.496156
0.069663
0.928710
-0.112146
-0.209123
0.907118
-0.669369
0.163466
-0.499609
-0.762880
-0.287861
-0.312720
-0.669725
0.716391
0.786115
-0.463995
0.842762
-0.319528
-0.225573
-0.269228
0.314694
-0.129328
0.375063
-0.685133
0.799559
-0.240737
-0.716617
0.076395
0.398751
-0.347078
0.133295
-0.736825
-0.230365
-0.815378
-0.953253
-0.424605
0.944602
0.552499
0.404253
-0.527784
0.845531
-0.924328
-0.246997
0.255597
0.891024
-0.932044
0.378044
-0.040730
-0.338908
-0.176176
-0.477281
0.432742
-0.651548
0.000870
0.818333
-0.978368
0.632773
0.668960
0.594790
-0.479996
-0.394335
0.549283
-0.201607
-0.436660
0.110881
0.407189
0.973912
-0.718545
0.203578
0.848401
-0.478906
0.849388
0.634484
-0.855134
-0.161480
0.044859
0.752446
-0.244090
0.387991
0.897060
-0.269601
-0.425932
0.179615
0.520760
0.443627
0.159826
0.217624
0.611511
0.013702
-0.264301
0.940258
-0.575545
0.514997
0.187683
0.609572
0.308290
-0.702123
-0.268427
-0.327193
0.594667
0.775602
-0.884129
0.659593
0.593063
0.973298
-0.390126
-0.929311
0.093294
0.692541
0.621100
-0.625183
0.865113
-0.569796
-0.409064
0.285936
0.602082
0.777501
-0.242991
-0.460934
0.348583
1.029485
0.227358
0.261398
0.287065
0.642423
-0.683863
-0.728136
-0.387382
0.940564
0.172615
-0.582560
-0.039941
1.018228
-0.671188
0.342370
-0.483136
-0.939693
-0.377481
-0.864021
-0.869408
0.500649
0.558911
-0.994766
0.344339
-0.263245
0.101455
-0.843899
-0.537599
-0.550975
0.787722
0.453925
-1.087037
0.415494
0.456019
0.892563
0.645618
0.602705
0.126592
0.080512
-0.064748
-0.420259
0.763201
0.175957
0.097711
0.038556
-0.784995
-0.542712
0.611175
-0.100533
-0.484231
0.252949
-0.445566
-0.883082
-0.757942
0.488734
-0.511924
-0.036372
-0.589564
0.833999
0.980834
-0.698880
0.895235
-0.860202
0.882836
-0.109415
0.709041
0.828526
-0.181617
-0.801501
-0.798077
-0.543957
0.139083
-0.085552
0.041401
0.711004
0.887881
0.588399
-0.980363
0.178169
-0.688483
-0.519315
0.167901
0.220071
0.928985
0.702974
-0.719111
0.299759
0.855095
-0.220119
-0.528180
-0.549853
-0.879354
-0.122133
-0.436024
0.521925
-0.859353
0.749840
0.737978
-0.385716
0.604561
0.583360
0.205265
0.174651
0.047749
0.837588
0.720015
0.934605
0.257316
-0.056746
-0.726210
0.747140
0.026484
-0.769256
-0.075521
-0.790716
-0.098757
0.334139
0.335279
0.346745
0.435866
0.424671
0.627143
0.110997
-0.775920
0.689580
-0.968199
-0.219024
-0.207432
-0.216722
-0.165198
0.757683
0.801777
0.242582
-0.595167
0.259426
0.150506
0.069857
-0.221931
0.158862
-0.872235
0.754458
0.193412
-0.554212
-0.513262
-0.055689
0.656710
0.968565
-0.840667
0.563345
-0.201153
0.579807
0.230597
-0.228686
0.306357
-0.705752
-0.231415
0.135107
0.417366
-0.199477
0.272713
0.727607
1.046135
0.382633
-0.808384
-0.923219
-0.148468
0.537631
0.806061
0.696603
0.858367
-0.567262
-0.142808
0.078038
-0.313074
0.486673
0.636013
-0.058982
-0.003756
-0.106677
-0.740200
0.184550
-0.001030
0.045205
-0.173232
0.291741
0.062162
-0.912056
-0.198176
0.905500
-0.114883
-0.932790
0.157306
-0.870060
0.129602
0.840162
0.249456
0.165730
0.917890
-0.548641
0.384405
0.241697
-0.623333
0.819336
0.133164
0.067584
0.355819
0.538248
0.110751
0.421277
0.308144
0.895245
0.106920
-0.691991
-0.318603
0.602679
0.045399
-0.391353
-0.571846
-0.257149
0.561992
-0.862942
0.544205
0.384571
-0.967931
-0.638860
-0.891615
0.699544
-0.421272
0.065326
0.247924
0.288339
-0.415671
0.287397
-0.544016
0.638922
0.259619
0.591235
0.958766
0.764939
0.025956
-0.493021
-0.114067
0.876110
0.007660
-0.202276
0.410037
-0.762637
-0.848792
0.813918
-0.842784
-0.588551
-0.400729
0.679396
-0.189057
-0.088873
-0.359632
-0.442715
-0.145031
0.482130
-0.120846
0.675429
0.552911
0.729778
-0.178680
0.481915
0.457040
-0.157219
0.261232
-0.625042
-0.958338
-0.870120
-0.055172
-0.836609
-0.967729
0.166822
0.337567
-0.978765
-0.860673
-0.633008
-0.174201
0.246509
0.580726
0.833622
-0.587388
0.433999
0.255361
0.688272
-0.644910
0.177763
-0.479444
0.173893
0.671847
-0.539541
-0.272180
-0.789528
-0.167647
-0.807095
-0.859058
-0.218142
-0.107242
0.931655
0.488766
-0.818554
-0.243744
0.281026
0.232019
0.647194
-0.829534
0.808623
-0.645611
0.113558
0.636276
0.986192
-0.386800
-0.426407
0.586317
0.438633
-0.316421
0.432628
0.251548
0.113597
0.111377
0.479266
-0.354587
0.247181
-0.803261
-0.595049
0.149319
0.693335
-0.430440
0.175312
1.012634
-0.072555
-0.285957
-0.623152
0.809723
0.596817
0.997913
0.780048
-0.548659
-0.287033
0.450977
0.138619
-0.690110
-0.261438
-0.837805
-0.388903
-0.594768
0.348900
-0.908266
0.869372
-0.985013
-0.194688
0.572545
0.598460
-0.629034
0.363365
0.919726
-0.466257
0.241549
0.526983
0.419784
-0.389633
0.249256
-0.919065
-0.016944
0.872527
-0.270635
0.540875
-0.793251
-0.077730
0.988636
-0.677188
0.733047
-0.069964
-0.155016
-1.017375
0.306985
0.805364
0.091722
-0.859596
-0.034128
-0.152401
0.866579
0.811396
-0.570549
0.221674
-0.533030
0.571567
0.751012
0.169816
0.010186
-0.616730
-0.455145
0.375327
1.050673
-0.571199
0.769920
-0.173887
0.379712
0.435160
-0.650733
0.668734
0.108860
-0.396844
-0.475026
-0.512236
0.657718
0.947773
-0.466872
-0.569035
-0.578910
-0.110686
-1.098581
-0.671311
-0.082750
0.999859
-0.163093
-0.565005
0.643892
-0.801901
0.425945
-0.109542
-0.197596
0.913634
-0.121190
0.508602
0.483914
-0.169989
0.848720
0.342521
0.474373
-0.832980
0.652856
0.777785
0.833865
0.320037
-0.364215
0.894695
0.316529
0.791490
-0.788321
0.719587
0.957199
1.029637
0.285972
-0.200780
-0.308335
0.486296
-0.810444
0.616906
-0.320073
-0.788353
-0.358160
0.896801
-0.819508
0.773397
0.293715
0.580112
0.784639
-0.836531
0.855348
-0.361866
-0.419027
0.554579
0.899239
-0.384067
0.688789
0.712853
0.773773
0.440677
0.837351
-0.239494
0.753477
0.091841
-0.876657
-0.506313
-0.491179
-0.059636
-0.072826
-0.854253
-0.615529
-0.352654
0.170707
-0.356274
-0.433713
-0.764918
-0.070292
0.285538
-0.507226
-0.206006
-0.585155
-0.029017
-0.638134
-0.908664
-0.522419
1.006759
-0.249241
-0.923910
-0.208859
0.502905
-0.357104
-0.373713
-0.911179
-0.967465
-0.304144
-0.769914
0.199562
0.057666
0.469477
0.566358
0.594690
0.923502
-0.761601
-0.397843
-0.618156
-0.259004
-0.257755
0.796939
-0.658260
-0.747666
-0.642605
-0.236847
-0.940482
1.087564
0.311733
0.874420
-0.013813
0.035620
-0.820791
0.164029
-0.804224
0.794023
0.659803
-1.000782
0.466564
0.085311
-0.668444
-0.304129
-0.564502
0.549306
0.763522
-0.229256
0.048183
-0.607111
-0.828013
-0.319295
0.838284
-0.259524
0.240884
-0.159589
0.627623
0.609905
-0.499523
0.414316
0.553462
-0.802047
0.292840
-0.236072
-0.297136
0.475788
0.239366
0.010541
0.991690
-0.545634
-0.647983
-0.744729
0.306596
-0.365673
-0.795912
0.357633
0.973383
-0.234868
-0.322406
-0.755709
-0.805750
0.495678
0.232789
0.989301
0.604885
-0.024343
0.124357
-0.595916
-0.384940
0.246276
-0.042076
0.275472
0.585935
-0.812273
0.509503
0.556372
-0.819636
-0.868835
-0.105007
0.846780
-0.083445
0.756279
-0.989183
0.996308
0.761174
0.797065
0.227467
0.063025
-0.682650
-0.482443
-0.275129
-0.084242
0.321581
-0.655969
0.294866
-0.511996
0.004230
0.579476
0.152354
0.469655
-0.720574
-0.080824
-0.261279
0.320286
-0.432061
0.580116
-0.309412
-0.390993
-0.726598
-0.233892
0.449052
-0.080020
-0.097164
-0.803886
-0.928823
-0.941463
-0.190250
0.883224
-0.911768
0.050133
0.816694
-0.892277
0.379126
0.661086
0.784836
-0.385069
0.220641
-0.584192
-0.977372
-0.678748
0.112777
-0.411311
-0.281943
-0.680047
0.790317
-0.581447
1.022210
0.481319
0.761571
-0.428579
0.011023
-0.918685
-0.924408
-0.637095
-0.600862
-0.695890
0.673667
0.655819
-0.602361
0.105273
-0.307128
-0.630238
0.575323
0.536454
0.499566
0.219898
-0.112718
-0.282728
0.334779
-0.422181
-0.709069
-0.160789
-0.429029
-0.770638
0.088232
-0.420659
-0.023042
-0.375752
0.501392
-0.866865
0.677717
0.375934
0.590494
0.616667
0.992734
0.132502
0.491076
-0.768601
0.835857
0.496756
-0.876952
0.020088
-0.701478
-0.080273
0.515872
-0.634325
-0.950254
-0.072753
0.051319
-0.878636
-0.485442
0.786757
-0.103970
0.242341
0.857680
0.320582
-0.380960
0.909569
-0.605798
0.795917
0.806190
0.320120
0.299120
-0.923607
-0.296013
0.173439
-0.845228
-0.382572
-0.843687
-0.285625
-0.205865
-0.216486
-0.182445
-0.957368
-0.977266
0.411984
-0.510643
-0.263253
0.259919
0.874961
-0.746094
-0.665127
0.482347
-0.332752
-0.425628
0.991791
-0.587306
-0.442874
-0.434126
-0.692137
-0.617814
-0.307428
-0.642164
-0.212552
0.697247
0.273430
-0.067022
-0.111435
0.276155
0.798520
-0.334518
-0.718046
-0.863519
0.955394
0.446583
0.258706
0.688026
-0.803080
0.079797
-0.470900
-0.099720
-0.160343
-0.164960
-0.525917
-0.683241
-0.720015
0.197856
-0.250767
0.221198
0.969079
0.273454
0.513753
-0.440888
0.645238
-0.293627
-0.400193
0.764507
0.427669
-0.670592
-0.883600
1.001272
0.490697
-0.351089
0.496124
0.281676
0.506415
0.065064
-0.275729
0.525473
0.618361
0.318822
0.045882
0.512919
-0.371152
-0.491497
-0.032058
-0.792802
-0.206588
0.491025
0.258982
0.072379
0.177294
-0.224293
-0.018051
-0.198762
-0.310084
-0.822806
0.912085
0.492603
0.016285
0.526619
-0.161863
-0.538435
0.717678
-0.430868
0.864178
0.171984
-0.825005
0.086231
-0.602557
0.847238
0.468178
0.508957
0.558016
-0.357318
0.817374
0.228976
-0.770603
-0.081412
0.119651
-0.490755
-0.726985
0.264563
1.006519
-0.577402
0.456560
0.031607
-0.355458
-0.718633
-0.402416
0.582907
-0.252706
-0.640190
-0.479740
0.745713
-0.272222
0.699918
0.627506
0.457943
-0.033405
0.764953
0.257933
0.769840
0.078081
0.716581
-0.400401
-0.149821
0.502398
-0.475460
0.985301
-0.424370
-0.934700
-0.308682
-0.798021
0.975303
0.743399
0.975611
-0.237828
-0.359940
-0.489128
0.747948
-0.164621
-0.098074
-0.305836
0.137852
0.831806
-0.014973
-0.948338
-0.224833
0.329522
-0.121881
-0.474898
-0.320145
0.689345
-0.871256
-0.943554
-0.915284
0.236286
-0.486850
-1.072339
0.736789
0.524901
-0.364290
0.443878
-0.021258
0.501418
-0.986530
-0.191891
0.970198
0.086602
0.827845
0.488056
0.720407
0.648716
-0.668346
0.073307
0.666720
0.739282
0.157619
-0.943563
-0.037671
0.331361
0.691978
-0.407208
-0.358308
-0.083610
-0.138245
-0.542065
0.454643
-0.340802
0.099228
-0.107556
0.964377
0.368873
-0.206232
0.283529
-0.460917
-0.412450
-0.364107
-0.016748
0.365109
-0.238606
-0.254066
0.778081
0.826934
-0.660166
0.363863
-0.411738
-0.655460
0.941308
0.684785
-0.735413
-0.069011
-0.487872
0.194620
-0.263036
-0.676886
-0.156117
0.160025
-0.115479
-0.762584
0.426267
0.072260
-0.476994
0.477081
1.094592
-0.136185
0.181876
0.663032
-0.301145
-0.982641
0.629696
-0.073226
0.954408
0.053296
-0.343242
-0.488380
-0.402992
0.870021
-0.590133
0.073146
0.644665
0.344689
0.561344
0.963729
0.916759
0.481326
0.745995
-0.213738
-0.561127
0.891407
-0.585494
-0.422214
-0.454762
-0.779996
0.128594
0.197179
-0.915216
-0.470610
0.361058
-0.229514
0.137024
-0.726684
0.684076
-0.109753
0.322491
0.554311
0.718373
0.779329
0.729013
-0.584469
-0.209794
0.813692
-0.060799
-0.155625
0.699703
-0.025879
0.292855
-0.497593
0.637494
-0.321241
-0.495395
-0.814356
0.534635
0.689086
-0.194440
0.653211
0.589452
-0.975287
0.565515
-0.661550
0.851832
-0.249765
0.620494
-0.616593
0.161826
-0.489216
-0.881262
0.522940
-0.280714
-0.245892
-0.526369
0.462097
-0.089959
0.945737
-0.913450
0.672268
0.062725
-0.547301
-1.070345
-0.335853
0.799023
-0.366539
0.250846
0.608526
0.227629
0.423060
-0.373732
-0.039562
-0.079591
0.934954
0.625724
0.920013
0.447411
-0.591208
0.055935
-0.330909
-0.688087
0.898049
0.429357
-0.039013
0.757876
0.452940
0.501638
-0.592064
-0.608883
-0.961884
0.544461
-0.959035
-0.962655
-0.730676
-0.197451
1.005498
-0.145380
0.142540
0.542206
-0.868295
0.656858
-0.122251
-0.161656
0.874213
-0.526199
-0.166576
-0.098283
0.049536
-0.286458
-0.699642
-0.983671
0.273788
0.372400
-0.549816
0.290999
0.104472
0.214669
0.397351
0.794107
-0.563436
0.326496
-0.344848
-0.923880
0.631091
-0.607177
0.095098
0.505460
0.171975
-0.764448
0.237703
0.834228
0.441659
-0.402845
0.850923
0.457902
0.859283
-0.520768
0.272805
-0.582898
-0.722214
-0.422903
-0.747418
0.175595
-0.673318
0.779013
-0.145608
-0.433970
-0.321125
-0.554070
0.963242
-0.908183
0.070727
0.814540
-0.010612
-0.896047
-0.053597
-0.798536
-0.235317
0.955860
0.456801
0.013871
-0.944056
0.140658
0.067862
0.807531
0.528275
0.492922
-0.787333
0.133356
0.790608
0.625862
-0.273559
-0.219282
0.656004
0.089351
-0.805867
0.509539
0.284715
0.822935
0.697593
0.772167
-0.692990
-0.363444
-0.943131
-0.371722
0.091385
-0.225075
0.517395
-0.231331
0.472103
-0.428996
-0.755808
-0.987511
0.101539
0.228449
0.879733
0.636618
-0.517145
0.728643
-0.176877
0.869635
-0.804717
-0.788053
-0.674734
-0.097850
-0.041860
-0.401356
-0.146660
0.164968
-0.424577
-0.709673
-0.449026
0.399546
0.285538
-0.166922
-0.840124
0.099530
0.239898
0.171890
0.900828
-0.801534
0.648720
-0.596679
-0.681735
-0.216344
0.496984
-0.677285
0.529538
-0.238025
-0.538859
0.893334
-0.060883
0.851803
-0.241039
0.780343
0.709084
-0.247165
-0.059499
0.658639
-0.676728
-0.755614
-0.675781
0.479171
-0.616622
-0.531117
0.168793
-0.216601
-0.293238
0.555099
-0.812959
-0.455246
-0.496367
-0.151714
-0.881583
-0.440967
0.372370
0.561827
0.946948
0.451431
0.380381
-0.867659
0.618860
-0.847147
0.100946
-0.691879
0.726507
0.719838
-0.349860
0.894598
0.611258
-0.456656
-0.769050
0.615917
0.922062
-0.272874
-0.371458
0.783313
0.585977
-0.344645
0.893995
-0.557346
-0.746056
0.118996
0.245959
-0.459594
0.159387
0.226308
0.574602
0.679036
0.091598
-0.581789
-0.642076
-0.092585
-0.535236
-0.006775
0.151489
0.506043
0.748326
-0.631228
-0.880239
-0.829793
-0.501753
0.475607
-0.447901
-0.779746
-0.786794
0.650006
-0.099615
-0.157768
0.517656
0.432585
-0.597051
-0.225038
0.469194
-0.508947
0.123615
-0.366918
0.429899
-0.543482
0.632581
-0.515943
-0.815791
0.332280
-0.716662
0.935178
0.395710
-0.067040
0.140829
-0.516620
0.409672
-0.230818
0.815894
-0.495947
-0.925163
0.204326
0.539290
0.168905
0.897411
0.701383
0.909719
0.336520
-0.544395
0.258305
-0.401953
-0.124303
-0.611169
0.726952
-0.139093
0.888726
-0.908033
0.756178
-0.743979
0.126013
-0.432794
0.829341
-0.529669
-0.091906
-0.511233
-0.724548
-0.960946
-0.068027
0.196233
0.457877
0.432479
-0.999013
0.420638
0.556459
-0.418262
0.336710
0.457613
-0.214347
-0.264657
0.059701
-0.842982
0.702921
-0.646807
-0.616344
0.802156
0.506381
0.162485
0.040943
0.485117
-0.757083
0.538637
0.741106
0.423073
0.519513
-0.449474
-0.924256
-0.745932
0.996828
0.031106
0.981430
0.808374
0.511653
-0.037139
-0.588486
-0.106786
-0.101287
-0.399485
0.112558
-0.345153
0.147823
-0.338937
-0.459268
-1.027795
0.074284
0.773609
-0.436574
0.334947
-0.910862
-0.010084
-0.894982
0.496066
-0.293719
0.282318
-0.382119
-1.019522
0.170719
0.925411
0.050812
0.257982
-0.110183
0.264566
-0.070206
0.042732
0.281193
0.586683
0.892920
-0.891877
0.371405
0.994676
0.602832
-0.768890
0.060155
-0.052842
0.915079
0.389576
-0.212882
-0.105886
-0.936832
0.042149
-0.612935
-0.123610
0.812378
-0.282595
0.367144
0.733148
-0.230094
0.006416
0.655770
-0.898439
0.619497
0.067487
-0.082412
-0.769072
0.314495
0.895543
-0.042658
1.015304
-0.732448
-0.902139
-0.808265
-0.913612
0.677384
0.371929
-0.977814
-0.946685
-0.631194
-0.188960
0.004127
-0.941152
0.117556
-0.417101
-0.117159
-0.307178
0.844452
0.443763
-0.482078
-0.238490
0.462923
-0.736787
0.756312
-0.735229
-0.273500
-0.450557
0.941153
-0.488844
-0.793537
0.463273
0.548701
-0.425361
-0.779057
-0.810250
0.596277
0.937125
0.420322
0.049089
0.176639
-0.300675
-0.206318
0.596058
-0.348780
-0.462423
-0.147249
0.784703
0.361576
0.968312
0.286276
-1.142415
0.576028
-0.030184
0.949134
0.315653
0.003027
-0.924018
-0.065642
0.071568
0.866735
-0.087458
0.629062
-0.437731
-0.410312
0.611868
0.254573
0.229526
-0.905678
-0.189839
-0.289991
-0.487339
0.451076
0.453380
-0.584631
-0.470164
-0.178221
0.331463
-0.144916
0.301886
0.279667
0.634595
-0.862429
0.694128
-0.453464
-0.112446
-0.551183
0.077759
-0.701765
-0.931105
-0.228439
0.053732
-0.968595
-0.292086
0.012858
0.497689
-0.891860
0.456681
0.996143
0.227334
-0.210594
-0.876821
0.316530
0.294816
0.435498
0.250364
-0.235112
-0.862089
-0.974531
0.729927
-0.829481
0.618143
-0.568015
0.393386
-0.558288
0.156995
0.806740
-0.238480
-0.799533
-0.873624
-0.309294
-0.868728
0.186737
0.321569
-0.295666
0.149035
-0.304268
-0.650219
0.258987
0.824792
-0.112524
0.690063
0.046287
-0.078652
-0.275510
-0.366657
0.181135
0.916502
0.970286
0.692099
0.870066
0.130808
0.653554
0.061879
0.960709
-0.265398
-0.192969
0.816217
0.444119
0.916207
0.848865
0.598646
-0.802540
-0.770643
0.599228
-0.177035
0.471618
0.362058
-0.285712
-0.554968
-1.053124
0.587824
-0.881611
-0.389492
-0.843186
-0.435030
0.296460
-0.210288
0.182310
0.139339
0.226306
-0.996219
0.887384
0.238355
-0.038581
0.665632
-0.770775
-0.649703
-0.552190
-0.295523
0.040956
-0.293260
-0.388372
-0.268769
0.332730
-0.796849
0.293861
-0.842399
0.604787
-0.705972
-0.599456
0.455792
-0.707971
-0.283398
-0.042277
0.322190
0.389741
0.156078
0.189848
0.940333
-0.585314
-0.095400
-0.462592
-0.499317
-0.929340
0.901541
0.568231
-0.877666
0.296686
-0.820009
0.176149
-0.915671
-0.606165
-0.387011
0.215598
-0.650789
-0.869208
0.258964
0.742170
-0.284997
0.369337
0.777740
-0.847339
0.253170
0.633080
-0.523969
-0.753953
-0.578977
-0.331778
-0.891563
0.707525
-0.116561
-0.782969
0.070981
-0.705080
0.965653
-0.482570
-0.132240
-0.017905
-0.248492
0.148795
0.834988
-0.602155
0.250986
-0.231288
-0.380639
-0.383951
0.897920
0.806042
0.217715
-0.579980
0.214046
0.707973
-0.738682
-0.212789
-0.198785
-0.094195
0.747927
0.387160
-0.842064
-0.140249
-0.497826
-0.957064
-0.223192
-0.577946
-0.612926
0.176098
0.089067
-0.232069
0.266515
0.798876
0.502027
0.099753
-0.879862
0.127354
-0.037100
0.829822
-0.408266
0.177241
-0.901846
-0.568304
-0.359390
-0.011623
-0.163666
-0.706264
-0.012879
0.337916
-0.656944
-0.174067
-0.236597
0.552893
0.071088
0.802514
-0.305732
0.924456
-0.774652
0.018042
0.721888
-0.548899
-0.682876
0.307199
0.315858
0.653872
0.791112
0.811185
0.393291
0.522440
-0.347218
-0.525541
-0.038265
0.222758
-0.300841
0.141821
0.073735
-0.904810
-0.758615
-0.792791
-0.359212
1.008535
0.599368
0.297636
0.180062
0.833489
0.242298
-0.644029
-0.351648
0.951025
-0.042296
-0.676015
0.648013
-0.191735
0.226444
0.207612
-0.387972
0.219682
0.461747
-0.196886
-0.031253
-0.696239
-0.908778
-0.780246
-0.274792
0.067278
0.931420
-0.099089
-0.634333
0.410068
-0.592269
0.215786
-0.897829
-0.213444
0.467231
-0.847442
0.195337
0.184132
-0.782819
0.832555
1.113547
-0.417249
0.443778
0.039790
-0.155448
-0.790703
0.768203
-0.210869
-0.526749
0.056363
0.938761
0.767805
0.214994
-0.503254
0.033427
0.722369
-0.476243
0.767172
-0.804862
-0.933790
0.552167
0.024374
0.827703
0.096358
-0.298307
0.450281
-0.792046
0.672277
0.420505
0.715936
-0.145636
-0.808309
-0.301109
0.204733
-0.303766
-0.333015
-0.272427
0.822393
0.869693
-0.834570
0.731682
0.768776
0.926294
-0.834822
0.275823
0.702377
-1.003134
-0.412355
0.121903
0.080080
-0.028506
-0.570571
0.635826
0.555514
0.581016
-0.856628
-1.009642
0.742187
-0.065009
0.099980
-0.630405
0.633228
-0.570763
0.353897
0.157328
0.656128
0.381883
0.040227
-0.369690
0.504836
0.815289
-0.360853
-0.898202
0.665468
0.129612
0.275789
-0.222809
0.693821
-0.141514
0.262537
0.703357
-0.274445
-0.146143
-0.182619
0.310648
0.734517
-0.264853
0.866698
0.962112
-0.058523
-0.564502
-0.041316
-0.662242
0.657100
-0.578950
0.492361
0.234956
-0.337657
0.599425
0.149261
0.798347
0.220950
-0.901909
0.351505
-0.815351
-0.607795
-0.852648
-0.482426
-0.307785
0.805302
0.365806
0.868805
0.732833
0.415735
0.691702
-0.119141
-0.284218
-0.928440
0.242304
0.425421
0.283565
0.888042
0.346523
0.359218
-0.823646
-0.058892
-0.314041
0.599173
0.442928
-0.941082
-0.314609
0.868167
0.048194
0.069259
-0.081811
-0.429591
-0.781634
0.348265
-0.664997
-0.354339
-0.145460
0.164909
0.409175
-0.714130
0.757122
0.788617
0.404016
0.369411
-0.969156
-0.091281
0.222513
-0.526218
0.501260
-0.301356
0.149147
0.438120
-0.634173
-0.898952
0.410627
1.057976
0.961467
-0.308448
-0.064796
-0.350527
-0.993399
0.552494
-0.673761
0.738768
-0.495830
-0.118356
-0.788926
0.655224
0.092464
-0.582841
0.782725
0.229522
-0.522019
0.267158
0.544372
-0.062028
-0.845200
0.552070
0.382778
1.001001
-0.723602
0.472655
-1.040516
0.764013
-0.446742
-0.655514
0.019440
0.928814
-0.287597
0.130995
0.716969
0.721288
-0.329996
-0.127338
-0.486872
0.583746
-0.399055
-0.588182
0.667080
-0.981320
1.013083
0.487864
-0.025763
-0.560018
-0.608085
-0.489346
-0.026291
-0.758533
-0.091426
0.011718
-0.767627
0.739160
0.886357
-0.288471
0.355553
0.623851
-0.879843
0.930486
0.529893
0.825050
0.174150
0.358122
0.823090
-0.202545
0.919510
-0.901826
-0.840747
0.480269
-0.802353
0.515480
-0.689972
0.740211
0.030051
-0.489197
-0.802118
0.092331
0.904641
0.553352
0.731841
0.962812
0.802725
-0.669897
0.737661
0.883261
0.811701
-0.475279
0.050456
-0.393568
0.660361
1.032984
-0.831402
0.439958
0.424765
0.473154
0.323874
-0.662996
0.073934
0.453525
0.589143
-0.581467
-0.915700
0.843872
-0.177139
-0.952338
-0.628674
-0.669403
-0.339509
0.267022
-0.636932
-0.088628
-0.287979
0.470810
-0.742432
-0.701333
-0.260784
0.144298
-0.910025
0.641905
-0.613215
0.672793
0.285751
0.596862
-0.609486
-0.697275
0.479551
-0.601908
0.577899
-0.675117
0.639907
-0.293628
0.367925
-0.197932
0.974113
0.384291
0.140855
0.421573
0.476634
0.605630
-0.149476
-0.605227
-0.108665
0.007086
-0.211300
0.778153
-0.176536
-0.532155
0.534459
-0.596071
0.346780
-0.079540
-0.591340
-0.349254
0.873435
-0.167296
0.358530
-0.198037
-0.248941
0.002199
-0.985583
0.797443
0.094029
0.817771
-0.162176
-1.079651
-0.871239
-0.416765
0.808408
-0.322839
0.089411
-0.557536
-0.917078
-0.553328
0.919540
-0.923824
0.730741
0.889102
0.482055
-0.606572
0.479996
-0.541495
-0.300851
0.324386
0.839686
-0.150442
-0.370922
0.558842
-0.391422
0.755237
-0.976560
-0.305510
-0.550379
0.954120
-0.458847
0.494970
0.171656
0.335349
-0.985903
0.577897
0.161202
0.684396
-0.781737
-0.679947
0.702491
-0.842212
0.591510
-0.660744
0.757674
-0.949011
0.691529
0.440769
0.759753
0.570337
-0.165658
-0.713703
0.067815
-0.692317
-0.417955
-0.333669
-0.317440
-0.076325
0.809466
-0.111902
0.626774
-0.680558
-0.193575
0.695652
0.630873
0.274209
0.633264
-0.530846
-0.563855
0.669007
0.276050
-0.177390
0.928339
0.448119
-0.344149
0.501113
0.520703
-0.180611
0.122217
-0.449640
0.479735
0.167932
0.443663
0.951933
-0.677778
0.837905
-0.166587
0.641345
-1.004274
0.443600
0.026887
0.980121
-0.204399
0.300884
-0.087757
0.364275
0.264071
-0.977850
-0.155095
-0.239998
0.481302
-0.136756
-0.461018
0.257996
0.068509
0.748212
0.239298
0.688724
0.939883
0.126466
0.293954
0.701044
-0.352876
0.737465
-0.631576
-0.946102
-0.360374
0.749120
-0.665263
0.532527
0.400255
0.487960
-0.354323
0.508607
-0.667526
0.713215
-0.918870
-0.538027
0.266189
0.149080
0.082513
-0.729145
0.276395
0.773093
-0.954209
0.264789
0.752631
0.494627
-0.332374
0.316142
0.675700
-0.878181
-0.008342
-0.339741
-0.720661
0.387103
-0.442760
-0.968894
0.463284
-0.317168
-0.101849
0.231179
0.496972
0.601973
0.976812
0.345087
-0.043978
0.600511
-0.321505
-0.327684
-0.883021
-0.063319
-0.497814
-0.439771
0.730115
0.851650
0.332989
0.823948
0.463782
-0.301059
0.253361
-0.661996
0.372178
-0.372511
-0.433781
-0.086682
-0.709150
0.683173
-0.585175
-0.547681
-0.424658
-0.346249
-0.208771
0.745691
-0.813108
-0.912100
-0.938419
0.506005
-0.201220
0.386801
-0.214690
0.871841
-0.774645
0.526170
-0.281666
0.784915
0.745631
0.557634
-0.749473
0.202485
0.473921
-0.567100
0.830654
-0.909049
0.444753
-0.922849
0.596847
-0.986468
-0.871475
-0.646291
0.680882
-0.440138
-0.683416
0.714153
0.920659
-0.515670
0.503420
0.063408
0.794156
-0.714876
-0.898465
-0.051773
0.213184
-1.111278
-0.113471
0.277522
-0.651798
0.440993
-0.312793
-0.780573
0.519959
0.164011
-0.711997
0.901437
-0.899640
0.169204
0.657887
-0.584927
-0.105702
0.750089
-0.748100
-0.947161
-0.704692
0.501844
-0.035691
0.878730
0.967938
0.790525
0.677260
-0.725688
-0.786726
-0.057524
0.529944
-0.761014
0.962348
0.226352
0.784124
-0.589359
-0.192868
0.279859
-0.652180
0.614653
0.603694
-0.193781
0.878188
-0.543777
-0.384638
0.909878
-0.443653
-0.409834
-0.040205
-0.693077
0.062370
0.254440
0.588271
-0.655192
0.751240
-0.440941
0.963139
0.337768
-0.274732
0.042683
0.724889
-0.108161
0.495234
0.970344
-0.626633
0.781500
-0.783690
-0.307750
0.513922
0.581315
0.843701
0.788914
0.813539
-0.437396
0.786827
-0.390639
0.320139
0.840396
-0.141932
0.228922
-0.063137
0.067442
0.448600
-0.543307
-0.256413
0.722422
0.043931
0.189653
0.197134
0.894253
-0.597306
0.461472
-0.148091
0.368778
-0.047737
-1.072933
-0.978035
0.640640
-0.302916
-0.815986
-0.393961
0.344288
0.097865
-0.805179
-0.189841
0.396332
0.001401
-0.820490
0.108323
0.265089
-0.013498
-0.916321
-0.832514
0.972034
0.720718
-0.625695
0.878338
-0.732298
-0.320135
-0.530322
-0.609186
0.181581
-0.996015
-0.171189
-0.215877
0.581309
-0.431958
0.966761
-0.785605
0.610013
-0.669705
0.858924
0.653783
-0.282103
0.747953
-0.084938
-0.772350
0.015011
0.757710
-0.354054
-0.571375
-0.373559
0.388660
0.706265
-0.863725
-0.257516
-0.899500
-0.223662
0.729228
-0.565702
0.021166
0.795708
0.022736
-0.943600
0.439931
-0.208368
0.582771
0.788264
-0.764214
-0.986522
0.864772
0.606967
0.562738
0.021207
0.507974
-0.186502
0.798518
0.911842
0.659282
-0.665417
0.953077
-0.017766
0.692712
-0.809430
0.543716
-0.976027
-0.233066
0.722962
0.183319
0.887791
-0.174607
-0.238719
-0.627869
-0.614207
0.432210
0.588442
-0.241047
-0.823647
0.029533
0.009265
0.106019
0.031807
0.343558
-0.262870
0.044384
0.354029
-0.183651
0.226301
0.094266
0.579136
-0.309426
-0.106445
0.522375
0.959698
-0.635944
-0.478297
0.370388
0.023209
0.792850
-0.342545
-0.224755
-0.863317
0.246884
0.749536
-0.175894
-0.071194
0.722084
0.747217
-0.031316
-0.016970
-0.977141
0.443805
-0.911566
0.894199
-0.470365
-0.497831
-0.152924
0.276141
-0.355461
-0.233614
-0.169249
0.580281
0.638401
-0.692778
-0.359125
0.040419
-0.100607
-0.908439
-0.663421
-0.938760
0.857835
-0.207528
-0.689307
0.881926
-0.554913
0.999306
-0.223132
0.772347
-0.345441
-0.110717
0.273162
-0.690594
-0.209448
0.687974
0.314454
-0.077380
0.355780
0.050626
-0.433584
-0.490800
0.378188
0.079476
-0.426211
0.941050
0.217205
-0.723054
-0.509043
-0.378844
-0.564492
0.349339
0.410329
0.859103
-0.245287
-0.599442
-0.898466
0.564952
-0.314101
0.831141
-0.941812
-0.013503
0.657432
0.927824
0.457859
0.651521
-0.118923
0.489590
0.308599
-0.913248
0.692629
0.420830
0.488882
-0.765530
-0.722042
0.714043
-0.910591
-0.675845
0.798899
0.387311
-1.014855
0.242065
-0.345862
0.863603
0.298816
-0.386093
0.662382
0.673762
-0.403058
-0.685263
-0.489474
-0.093340
-0.003261
0.390890
0.495289
0.250404
0.272530
-0.627536
-0.704588
0.965791
-0.075224
0.864514
0.812832
0.984970
0.630507
-0.864069
0.123244
-0.512878
-1.098286
0.183565
-0.586571
-0.915041
-0.861693
-0.338911
-0.335026
-0.649483
-0.565774
0.107828
-0.663659
-0.807540
0.136277
-0.322594
0.193941
0.493800
-0.317817
-0.800434
0.075438
-0.533876
0.387650
-0.998659
-0.039906
0.266008
-0.324650
0.658613
-0.962908
0.858731
-0.032351
0.459715
-0.572222
-0.647286
-0.036171
0.533539
0.480632
-0.480036
-0.603592
-0.768723
0.371452
0.662722
0.392859
0.763203
-0.405681
0.437527
0.963359
-0.114665
-0.204298
-0.976819
0.201080
-0.155114
0.080962
0.464409
0.339816
-0.502231
-0.556616
0.628185
-0.066674
0.575417
-0.257567
0.386743
0.694381
0.438716
0.185452
-0.731361
0.343941
-0.164457
0.614194
-0.553989
-0.121228
0.416499
0.571204
0.472670
0.001460
-0.294881
-0.960174
0.535649
-0.863177
-0.242909
0.332937
0.139616
-0.057949
0.417184
0.535776
-0.702630
-0.445647
0.673648
-0.288277
-0.138678
0.797313
0.412498
0.645011
0.904712
0.950227
-0.000235
0.036657
-0.692504
0.512560
-0.878232
-0.723396
0.719209
-0.863023
0.264215
0.781320
0.903818
0.976525
0.898498
-0.325819
-0.477970
0.917036
-0.528460
0.523645
-0.385864
0.535262
0.791118
-0.279179
0.674253
-0.135548
-0.025989
-0.227906
-0.795075
0.423900
0.807785
0.177213
0.945152
0.353900
-0.235200
-0.407053
0.611773
-0.515579
-0.171016
0.298643
-0.811854
0.800550
-0.611688
-0.066727
-0.840329
-0.986123
-0.629866
-0.629045
0.563602
-0.591334
0.299976
0.401456
0.502341
0.955262
-0.073388
-0.007311
-0.057956
0.093998
0.057421
0.843955
-0.895583
-0.171089
-0.330201
0.928768
-0.548833
-0.962555
-0.441538
-0.164027
0.066099
0.302555
0.059438
-0.046200
1.070208
0.226862
0.028402
0.791370
-0.186609
-0.022895
-0.010916
0.058669
-0.648742
-0.262104
0.679482
0.552760
-0.221027
0.687900
-0.141962
-0.446097
0.926637
-0.440046
-0.761296
-0.864563
-0.893803
0.589205
0.592358
0.704195
-0.636592
-0.174284
-0.982038
-0.833157
-0.426733
-0.751897
-0.156243
0.450665
-0.118323
0.173815
0.858238
0.984311
0.818219
-0.534853
-0.242451
-0.611331
-0.081585
-0.300039
0.429768
-0.131542
-0.700053
0.942556
0.309308
-0.014556
-0.287530
0.115730
0.439698
-0.827299
0.492605
0.171419
-0.307943
-0.569334
-0.577580
-0.226634
-0.714523
-0.255919
-0.473503
0.549001
-0.629445
-0.175158
-0.724839
-0.547992
-0.736317
0.764551
-0.748432
-0.079205
-0.236810
-0.066301
-0.330969
-0.262109
0.583042
-0.106885
-0.162048
0.471087
-0.479114
-0.912870
0.324113
-0.916538
-0.287684
-0.468441
-0.190673
0.689104
0.204066
-0.727608
0.779233
0.723604
-0.331719
0.261505
-0.868321
0.979668
0.074862
0.708770
-0.906904
0.016959
0.439984
0.553032
0.020705
0.140309
0.606490
0.562209
-0.067280
0.678995
0.302535
-0.075155
0.459999
-0.421965
-0.557726
-0.688941
-0.772372
0.362143
0.878084
0.022098
0.195936
0.370099
-0.844153
0.068493
-0.106577
0.320308
0.292690
0.226169
-0.924958
0.454876
0.698379
0.113163
0.738663
-0.271544
0.529936
0.920047
0.096590
0.538035
-0.898246
-0.030341
0.047348
-0.876599
0.046647
-0.477521
-0.708971
-0.873964
0.404829
0.144694
0.099608
0.802320
-0.516887
0.808167
-0.195183
0.434119
0.954775
-0.461230
0.420684
0.749885
0.342985
0.397926
0.695893
-0.769988
-0.468797
0.485365
-0.601544
0.207886
0.520940
-0.062196
1.045626
-0.106152
0.510937
0.784966
-0.769754
-0.577840
-0.072826
-0.582232
0.447597
0.069537
0.762920
0.857993
-0.831891
0.680682
-0.817689
-0.858029
0.415316
-0.333647
0.260624
0.787555
0.232960
0.339044
-0.193138
0.356277
0.813975
-0.157547
0.509360
-0.400180
-0.389408
0.023793
-0.912440
0.857484
-0.816933
0.494965
0.152934
-0.120530
-0.315467
0.285395
-0.735191
0.727981
0.558949
0.099467
0.556915
0.180915
-0.359037
-0.097363
-0.086091
-0.825400
0.259339
-0.118316
-0.549395
-0.311955
-0.918268
0.540684
-0.358285
0.680553
-0.472210
-0.133914
-0.527950
0.104952
0.702875
0.482836
0.505455
0.193572
0.590937
0.250665
0.301224
-0.670600
-0.389132
0.713400
0.066129
0.291516
-0.649103
-0.152196
0.554811
-0.212829
0.713972
0.112792
0.706938
-0.474887
0.491080
0.276472
0.614703
-0.947925
0.994630
-0.466510
-0.090383
-0.543566
0.817071
0.200508
0.752466
0.634654
-0.394584
-0.713260
-0.698951
0.725273
-0.719851
0.321976
0.481855
-0.341244
0.119761
0.410598
0.491199
-0.194471
-0.747027
-0.240256
0.170757
-0.477790
-0.044791
-0.887826
0.317330
0.711541
0.490935
0.926904
0.438765
0.081611
-0.474171
0.596535
0.402280
-0.632199
-0.541090
0.858959
0.163873
0.070809
-0.856442
-0.643466
0.357814
-0.070386
0.905102
-0.430122
-0.358165
0.547680
0.646461
0.886609
0.806667
0.097388
-0.287353
0.726880
0.701677
-0.769664
-0.097969
-0.629210
0.640670
-0.823064
-0.627984
-0.875047
-0.849860
0.762295
0.428213
-0.691531
0.290906
0.159940
0.067555
-0.820772
-0.788845
0.349323
-0.416544
-0.705193
-0.475992
0.306101
-1.027350
0.608678
-0.145801
0.440688
-0.216307
-0.514633
0.843443
0.228886
-0.140652
1.011003
0.755540
-0.931164
0.215902
-0.873787
0.571815
0.304719
0.381169
0.634350
-0.122705
0.006837
-0.197375
-0.906698
0.438063
0.108321
0.600665
0.158822
-0.939248
0.246664
0.526758
-0.055599
-0.107443
-0.488369
0.881287
0.830615
0.700731
0.308731
0.622728
-1.022131
0.294526
0.012350
-0.761178
0.907007
-0.745352
-0.101979
-0.435383
0.642551
-0.316583
0.534723
-0.879972
0.332387
-0.807274
-0.100156
0.418283
-0.783145
-0.985186
0.115752
-0.646410
0.596145
-0.886454
0.343881
-0.954636
0.875568
-0.588285
0.827350
0.810889
0.150430
-0.990194
0.357003
-0.771181
0.718292
0.739628
-0.334408
-0.783928
-0.653172
0.939801
-0.210239
0.863152
0.150350
0.193942
0.204434
-0.254018
-0.187948
-0.721488
0.311451
0.737904
-0.801992
-0.978485
0.025132
-0.614479
-0.106007
0.529553
-0.923567
0.021093
0.475922
-0.122565
0.123051
-0.450069
-0.730192
0.883649
0.856338
0.471718
-0.509198
-0.180908
0.018438
-0.185635
-0.042563
-0.338748
0.770056
0.922280
0.650782
-0.048519
0.764516
-0.947543
0.293987
-0.477146
-0.054693
-0.308800
-0.973677
-0.733850
-0.771543
-0.205143
0.504936
-0.257310
-0.514480
0.216321
-0.080459
0.657650
-0.220157
0.356207
0.484220
-0.634147
-0.098203
0.847036
-1.089155
-0.123266
-0.078036
-0.895063
-0.710498
0.009094
0.187297
-0.279438
-0.677795
0.334902
-0.630698
0.322193
-0.254173
-0.728410
0.464687
-0.579324
-0.035876
0.856087
-0.330049
-0.413564
-1.029613
-0.174011
-0.073003
0.143011
0.701876
0.316794
-0.883871
0.796405
0.856154
0.202829
0.383748
0.438972
0.596131
0.760008
0.005660
-0.167995
0.286082
-0.419733
-0.827489
-0.827003
0.843623
-0.863505
0.159034
0.848277
-0.532660
0.774413
0.515682
0.220976
0.016769
0.761610
-0.145939
-0.188759
0.673658
-0.341705
-0.519530
0.825261
-0.122617
0.450587
0.524090
0.677724
-0.760328
0.238591
0.237411
-0.675393
0.992417
0.103010
-0.495547
0.744927
-0.668656
-0.737599
0.629300
-0.142316
-0.147209
0.755900
0.881880
-0.383346
-0.156862
-0.602534
0.580673
0.611249
-0.050584
-0.800535
0.835680
-0.694742
-0.391524
0.469293
0.695402
0.489377
0.535197
-0.150446
0.953761
0.457438
0.759874
-0.408284
-0.120600
-0.714243
0.386663
0.746742
-0.587275
-0.223713
0.384858
0.520680
-0.586712
0.337405
0.362744
-0.432387
0.192631
-0.844336
-0.587522
0.692799
-0.451231
0.540130
-0.434648
-0.718579
-0.155385
0.183994
0.931908
0.850021
-0.553644
-0.691056
0.385544
0.508901
-0.487539
-0.154641
0.830052
0.931210
0.180762
0.915183
-0.581456
0.342393
-0.555527
0.663643
0.956672
-0.738549
0.323621
-0.806377
0.254945
-0.632759
-0.774130
0.960140
0.647568
-0.079036
-0.287513
0.448298
0.175995
0.489240
-1.117248
-0.619348
0.991338
0.982179
0.502929
-0.109331
0.796201
-0.191603
-0.460226
0.029513
-0.169585
0.596497
0.913575
-0.756838
-0.431781
-0.902212
0.003059
0.063921
0.061184
0.416326
0.625026
-0.608800
-1.135113
-0.000788
-0.395466
0.897160
-0.306761
0.451813
0.000319
0.021734
-0.791982
-0.964699
0.653777
0.123131
-0.425850
0.647598
-0.377835
-0.747800
0.814232
0.399198
-0.494616
0.876584
-0.356970
-0.943959
0.344081
-0.510566
-0.345615
-0.854885
0.501596
-0.578918
0.614048
0.168607
0.761368
0.580731
0.342307
-0.026175
0.010315
0.275876
-0.359891
0.012322
0.684734
-0.408519
0.495839
-0.610101
0.369832
0.892270
0.020564
-0.762896
0.259073
-0.761729
-0.387583
0.121320
0.101623
-0.607392
-0.761693
0.785450
0.767739
-0.521029
-0.800727
-0.506624
-0.003388
0.688826
-0.050473
-0.836118
-0.749461
-0.216516
0.788198
-0.682914
-0.602927
-0.715132
0.413006
-0.047276
-0.541336
0.179782
-0.334473
0.618877
-0.734982
0.738737
-0.534185
-0.825050
0.608053
0.764415
-0.751759
-0.211262
-0.829961
-0.657754
0.779117
-0.008497
0.126520
0.318085
-0.212416
0.770267
0.323212
-0.716192
0.214677
0.000683
0.916792
-0.753388
-0.663072
-0.637312
0.105225
-0.645684
0.020454
0.797232
0.018342
0.361644
-0.826389
-0.702753
0.847746
-0.978648
-0.266641
0.038955
0.378779
0.709314
-0.693100
0.655759
-0.469819
0.004253
0.355605
-0.104707
-0.357358
-0.833542
-0.562145
0.605050
0.370323
-0.324637
-0.930535
0.254836
-0.602132
-0.625907
0.101598
0.916662
0.735107
-0.656024
-0.103607
0.364880
-0.759722
-0.922193
0.735605
-0.584705
-0.784558
-0.066602
-0.487709
-0.965327
-0.827751
0.457939
0.826976
-0.262943
-0.002784
-0.292455
-0.850244
-0.045411
0.305200
0.023660
-0.969811
-0.380310
-0.032874
-0.088822
-0.822830
-0.885341
0.535122
-0.855997
0.264478
-0.847271
0.366418
0.308370
0.029152
0.206097
-0.308528
0.254935
0.001679
-0.459660
-0.124538
0.990807
-0.610828
-0.942376
-0.258038
0.682926
-0.502913
-0.624761
-0.650642
-0.255012
0.746293
-0.304463
-0.165684
0.020802
-0.318938
0.972025
-0.760808
0.180803
0.797845
0.659849
-0.353998
-0.987094
-0.796301
-0.137709
-0.854988
0.603044
-0.316687
0.829961
0.138288
0.485632
0.848548
-0.564946
0.114134
0.597390
0.802937
-0.625665
-0.476855
-0.898382
-0.267027
-0.869180
0.018136
0.035491
0.293927
-0.690935
-0.872451
-0.273887
0.072283
-0.616925
0.533167
0.313287
-0.721951
-0.674872
-0.269027
0.253374
0.706824
-0.308485
0.378880
0.686657
0.569234
-0.616757
0.398382
0.021278
-0.042402
-0.575492
-0.799526
-0.369708
0.554157
0.637545
-0.106973
-0.818528
0.695047
0.504374
-0.294405
-0.964670
-0.065351
-0.258455
0.132155
-0.879352
0.909269
0.063739
-0.057177
0.518955
0.286474
-0.797524
0.224144
-0.911953
0.516791
0.723610
-0.952101
-0.293717
0.272016
-0.339620
0.898886
0.460539
0.786672
-0.636445
0.379928
0.061737
-0.697839
0.824153
0.086169
-0.153227
-0.765739
-0.293436
0.797304
-0.756946
0.338150
0.825761
0.685843
-0.175941
-0.789291
0.550829
0.812241
-1.093781
-0.096673
0.644067
-0.197742
0.479481
0.700845
-0.430472
-0.854477
0.211832
0.680420
0.388634
-0.610285
0.148522
0.405592
0.452917
0.799924
-0.528742
0.077802
-0.660351
0.625900
0.846313
-0.209835
-0.555468
0.921417
0.506740
-0.511492
0.819245
-0.603631
-0.151302
-0.037590
0.688706
-0.014492
0.128566
-0.233843
-0.933172
0.420438
0.317263
-0.384697
-0.010158
0.116227
0.874365
-0.081187
0.758706
0.451601
0.149880
0.952052
-0.162911
-0.630368
0.284634
0.133880
0.383147
0.118500
-0.942535
0.549659
0.643076
0.791397
-0.038245
0.919423
0.873007
-0.816489
-0.828396
-0.903038
-0.539175
0.006266
0.606477
-0.003833
0.474065
-0.868087
0.019166
0.555872
0.075210
-0.558629
-0.733017
0.050062
0.052819
-1.047199
0.750016
-0.030778
-0.478038
-0.531472
0.323309
-0.188839
0.492094
-0.776983
-0.246119
0.556742
-0.532850
1.009433
-0.055334
-0.698974
-0.545856
-0.941373
0.609546
-0.094208
0.042726
0.369980
-0.888342
-0.351487
0.704684
0.267391
0.564357
0.709300
-0.083942
-0.782002
-0.164919
0.349291
0.623352
0.740183
0.917623
0.145837
-0.079741
0.212029
-0.120490
-0.584036
0.224025
-0.795919
-0.251479
-0.812972
-0.173479
-0.792879
0.227443
0.457772
0.097576
0.989728
-0.899490
0.356053
-0.614874
0.189247
-0.649758
0.670323
-0.360344
-0.107702
0.072810
0.870163
0.268259
0.482039
0.112189
-0.444306
0.776810
0.551884
0.096119
0.577307
0.870147
-0.894082
-0.729020
-0.970667
0.948301
0.225953
-0.086201
-0.374435
-0.941457
0.739339
0.081317
-0.493802
-0.716678
0.363238
-0.481461
0.297722
0.533501
1.045685
0.428026
0.059588
-0.287504
-0.355548
-0.005895
-0.698657
0.475740
-0.776018
-0.772688
-0.172991
-0.615809
0.076274
0.631308
-0.248308
-0.046279
-0.829847
0.658113
-0.683791
0.389710
0.331692
-0.364225
0.725414
0.007242
0.074314
0.505420
-0.352132
0.099322
-0.272145
-1.015411
0.040339
-0.754415
0.920210
-0.852168
0.794130
0.224275
-0.089874
-0.144565
0.456102
-0.746751
-0.285564
-0.752193
1.023313
0.681023
-0.620858
0.435006
0.382982
0.648399
0.880312
0.177484
-0.949781
-0.201330
-0.077826
0.391255
0.075179
-0.148783
-0.065059
-0.758235
-0.733514
0.556032
-0.945404
-0.485458
-0.344054
0.722741
0.020187
-0.581926
-0.508882
-0.362545
0.712626
-0.542706
0.440155
0.737850
-0.854333
0.687537
0.709211
0.835709
0.648245
0.852409
0.054313
0.544102
-0.936420
0.782530
-0.382386
0.471061
-0.721445
0.360475
-0.119017
0.272517
0.906089
-0.375268
0.705859
0.780878
-0.525207
0.953735
-0.915449
0.059798
0.163226
-0.653722
0.664951
-0.787800
-0.621208
-0.298172
0.628749
-0.210573
-0.928049
-0.896708
0.018241
-0.851008
-0.160874
-0.262706
0.704428
-0.921547
-0.756768
0.257855
-0.618140
-0.423535
0.941700
-0.059987
-0.303819
0.149581
0.710778
0.831994
-0.711383
0.777821
-0.711303
0.907320
-0.668380
-0.411201
0.709471
-0.458215
-0.493042
-0.920067
0.430592
-0.183259
-0.110331
0.759524
0.010984
0.878285
0.381436
0.179767
-0.643229
-0.085587
0.816336
-0.641682
0.791284
0.439042
-0.912877
0.506134
0.384788
0.428192
-0.195289
0.161139
-0.728714
0.184212
0.684549
-0.095766
0.410416
-0.206721
-0.707091
0.142734
-0.365037
0.233502
0.261980
0.169585
-0.830236
-0.861243
0.494033
0.516146
0.008293
-0.529128
0.258217
-0.711927
-0.598154
0.962691
0.194153
0.129251
-0.668138
0.642957
-0.308943
0.600201
-0.358028
-0.259915
-0.378774
-0.716433
-0.742715
0.483482
0.891245
-0.169942
0.950826
0.174913
0.399955
-0.128698
-0.150161
0.862139
0.527677
0.564250
-0.124919
0.135293
0.575488
-0.044282
0.113363
0.533343
0.973612
0.360285
-0.308351
0.713793
0.524672
-0.038842
-0.534391
-0.623422
0.095355
-0.557081
-0.737667
-0.718805
-0.676293
-0.500511
0.407274
-0.323921
-0.956046
-0.184926
-0.553656
1.161868
-0.500301
-0.189277
0.001868
-0.865866
-0.125103
-0.171328
0.701193
0.415317
-0.088594
0.804468
0.900198
-0.035136
-0.858585
0.484137
-0.213068
0.898339
-0.578273
0.076276
-0.105271
-0.625775
0.548073
0.582461
-0.031151
0.390806
0.604147
-0.965371
-0.747331
1.026803
0.236018
0.346417
0.338340
-0.826167
-0.292047
0.840700
-0.796258
0.387781
0.469391
0.380562
0.828665
0.744847
0.327239
0.305147
0.094716
-1.006212
0.562067
-1.025931
0.653917
0.926689
0.629957
0.133000
-0.349387
-0.239936
0.932964
-0.059149
0.273290
-0.857265
0.802953
-0.123507
0.149052
0.582888
0.135346
0.222672
0.428972
-0.635198
-0.415739
0.667458
0.673619
0.386188
0.507351
0.731619
0.579886
0.468761
-0.790996
0.021257
-0.059044
-0.670973
-0.727518
-0.585999
-0.632060
-0.170502
0.824150
-0.088803
0.801592
0.667222
-0.263843
-0.271706
-0.332248
-0.877828
0.450993
0.027514
-0.010887
-0.729128
0.826953
0.573288
0.168481
-0.734361
-0.014984
0.751295
-0.734200
-0.087024
0.520604
0.958735
0.921500
0.316810
0.321418
0.176661
0.546533
-0.110713
0.243933
-0.977272
0.494338
0.301771
-0.305347
-0.458299
0.971700
0.108014
0.417249
-0.267432
0.193935
-0.944261
0.573359
0.642295
0.519150
-0.038208
-0.289230
0.631615
0.993045
0.654595
0.605933
-0.794986
-0.829732
0.717386
-0.439371
0.426630
-0.749880
-0.933969
-0.429860
-0.344169
-0.257874
0.847012
-0.316463
-0.127763
-0.798043
-0.497617
-0.962722
0.726342
0.012701
0.818926
0.158537
0.044309
0.994424
-0.712509
-0.069634
0.122910
-0.326175
0.054643
-0.981571
-0.549647
0.548351
-0.875678
0.570499
0.227651
-0.110464
-0.209317
0.273852
0.291598
0.052087
0.515559
0.142396
0.800438
-0.663660
0.576178
-0.369667
-0.495778
-0.226097
-0.871267
-0.544900
0.073749
0.688096
-0.761312
-0.482553
0.365711
-0.997795
0.156158
-0.657351
-0.889729
-0.598381
0.981446
-0.887279
0.351257
-0.961181
0.153068
0.705069
0.556944
0.707243
-0.641419
0.072194
-0.702143
0.495738
-0.024456
-0.211100
0.703369
0.373915
-0.223261
0.820896
-0.758017
-0.935392
0.143475
-0.617727
0.086625
0.073612
-0.199210
0.695332
-0.505941
0.730016
0.929209
-0.405976
0.183762
0.795984
0.804253
-0.237927
-0.595562
0.277967
0.237272
-0.807666
0.700122
0.408392
0.366295
-0.487615
0.013387
0.792957
0.628966
-0.327654
0.988598
0.404271
0.583422
0.549897
-0.746661
0.076773
-0.700151
0.239543
-0.308298
-0.028477
0.802208
0.203539
0.622470
-0.427004
-0.147085
-0.170899
-0.315544
0.588653
-0.568041
-0.363567
-0.665691
0.209588
-0.306044
0.790871
-0.333063
0.369784
-0.162226
0.019435
-0.621406
0.404781
-0.469700
0.149479
0.170269
-0.585207
-0.738453
0.411156
-0.427057
-0.952373
-0.280368
0.299222
-0.957779
-0.451448
-0.572253
0.474309
-0.542895
0.539121
0.008451
-0.691237
-0.184989
0.903745
-1.151754
0.962708
0.693033
0.603979
-0.834273
-0.860213
0.841156
0.223003
0.934016
-0.027386
0.916319
0.144018
0.393552
0.098543
0.273970
-0.158044
0.576514
-0.626726
-0.171386
0.513451
-0.965109
-0.618616
-0.190044
-0.261211
-0.860027
-0.207429
-0.382529
0.834906
-0.260801
0.732991
-0.328858
-0.998198
-0.950015
0.508513
-0.874259
-0.887662
0.339785
0.996729
0.759008
0.358849
-0.388848
-0.630254
0.577764
-0.802651
-0.125996
-1.032854
0.133294
0.382579
-0.694150
-0.074840
-0.110537
0.375676
-0.176750
-0.794138
-0.776808
-0.020951
-0.762458
0.165100
0.766406
-0.505872
0.232627
-0.361405
-0.394227
0.584707
0.260710
0.183517
0.886478
-0.644287
0.940696
0.291950
0.271801
0.492600
-0.243772
-0.552938
0.492995
0.095329
-0.700949
0.640049
-0.695945
0.610196
-0.698414
-0.774582
0.395081
-0.087975
-0.574183
-0.356240
-0.327215
0.236328
-0.927114
0.911650
0.026405
-0.959959
-0.914537
0.776749
0.018047
0.680476
-0.515359
-0.220260
-0.392264
-0.567258
-0.719633
0.814120
-0.489213
-0.973790
0.076084
0.333679
-0.355693
0.618600
0.625481
0.879688
0.214030
-0.964616
0.257874
-0.750791
-0.369054
0.219605
-0.187293
-0.798567
0.713780
0.183389
-0.538714
-0.222520
-0.398167
0.064545
-0.421953
0.087139
0.308994
0.431353
-0.608045
0.422940
-0.812046
0.170573
0.972002
0.810082
-0.473212
-0.810372
-0.354437
0.341311
0.275421
0.203573
0.571047
-0.712841
-0.994945
0.111530
0.032665
0.869999
-0.392243
-0.847799
-0.468900
-0.761952
-0.243813
-0.455385
-0.510417
-0.235128
0.371255
-0.748532
0.882127
0.932865
0.546187
-0.238755
-0.005729
0.218229
0.322821
-0.324606
0.360235
-0.316297
-0.775695
0.609564
0.241059
-0.785153
-0.458657
0.178564
-0.489183
-0.857547
0.784562
0.064352
0.085910
0.400105
0.889092
0.419792
0.111904
-0.735265
0.228737
0.227906
0.135434
-0.143589
0.871831
0.317057
-0.463744
-0.957724
0.689507
0.276541
-0.190170
0.752829
-0.552085
-0.228116
-0.750712
0.717857
-0.370516
0.738904
-0.057363
0.294678
0.977863
-0.209975
0.613339
0.470461
-0.707952
-0.572877
-0.330218
0.789695
-0.217361
-0.377277
-0.570939
-0.742889
-0.369813
-0.314069
-0.521438
-0.649740
0.457840
0.364570
-0.303209
-0.388555
-0.971366
-0.860732
-0.292039
-0.179349
0.220521
0.707379
-0.749662
1.010019
-0.699143
-0.144422
0.691501
0.904548
-0.449964
-0.207769
-0.946480
-0.426116
-0.600846
0.457304
0.023350
0.210893
-0.386243
-0.286306
0.561307
0.704542
0.523575
0.026185
0.125908
0.550672
0.304402
0.841678
-0.202714
-0.561712
0.053339
0.682688
-0.707902
0.561520
-1.000372
0.850841
-0.146179
-0.242362
0.266004
-0.771755
-0.817220
-0.692168
-0.903419
-0.017330
-0.023228
-0.025306
-0.417085
0.907511
-0.481447
0.599979
0.927470
-0.822858
0.374328
0.133663
0.823610
-0.590393
-0.263875
0.428144
-0.596123
0.837882
0.834738
-0.387297
0.551342
0.495192
0.467204
-0.206709
-0.481687
0.810793
0.075509
0.667042
0.873711
0.412525
-0.703063
-0.293341
0.582700
0.661350
-0.312717
-0.425642
-0.386638
0.369468
-0.427873
0.485115
0.170651
0.627366
-0.385630
-1.003744
0.519722
0.039305
0.456453
-0.612609
0.678007
-0.803912
0.877973
-0.617745
-0.591102
0.596353
-0.133709
-0.037520
-0.648103
0.037676
0.335759
0.828454
0.943225
-0.503993
-0.758529
-0.719305
0.569510
0.223013
-0.519848
0.614072
0.245576
0.683637
0.143056
0.950787
0.702669
0.678222
0.235889
-0.361593
0.113804
-0.099546
1.038815
0.780732
-0.659223
-0.376574
-0.517661
-0.087250
-0.382329
0.839950
-0.287981
-0.406090
-0.245538
0.169956
0.410094
-0.811952
-0.817779
0.883223
0.906704
-0.887616
-0.428301
-0.160862
0.526258
-0.067068
0.787831
-0.091843
0.519940
0.764664
0.460109
0.705743
0.823542
0.765700
0.665173
0.364608
-0.709134
0.004034
0.702837
0.486087
-0.678623
-0.767129
-0.783751
-0.305537
-0.519208
-0.233765
-0.976628
0.944430
0.600441
-0.402352
-0.356187
0.631705
0.243738
0.577390
0.288962
0.783256
-0.748521
-0.705911
0.869984
-0.914012
-0.106594
0.253825
-0.113614
0.125515
-0.040572
0.097765
0.287107
-0.274406
0.989994
-0.788295
-0.768091
-0.500259
-0.797798
0.640256
-0.363064
0.535615
-0.306213
0.536198
-0.796615
-0.450066
-0.115512
0.299730
0.240374
-0.810263
-0.366525
-0.110091
0.874066
0.577558
-0.437969
-0.824470
-0.837558
0.773654
0.061066
-0.492884
0.407513
-0.015410
0.054693
-0.609090
-0.372341
0.328843
-0.803202
-0.126544
-0.267410
-0.070078
0.505758
0.594548
-0.198342
0.518969
0.196433
0.207443
0.588695
-0.751578
-0.737097
0.880200
-0.283362
-0.612664
0.343666
0.827805
0.394961
0.622714
0.328606
0.490458
-1.016832
-0.910997
0.092607
0.355321
0.409698
-0.466382
0.822803
-0.524784
-0.524809
0.555992
0.946475
-0.176723
0.790836
-0.968839
0.224065
0.534506
-0.672430
-0.625398
-0.626916
0.125129
-0.779452
0.747055
0.876648
-0.866178
-0.246290
-0.872835
-0.381999
-0.583922
0.328803
-0.631076
-0.647580
0.347849
-0.358325
0.607600
0.904162
0.022866
-1.093392
0.377671
-0.291507
0.147114
0.942015
-0.012180
0.638754
-0.728051
1.027479
-0.368436
-0.739415
-0.088550
0.586321
-0.087312
-0.532343
-1.027447
-0.999389
0.513347
-0.901270
0.910260
0.756068
-0.489358
-0.777774
-0.295958
-0.562439
-0.105894
-0.086477
-0.686853
-0.299101
-0.048671
-0.255595
-0.032575
0.609530
0.251013
-0.001143
0.963535
0.700396
-0.040404
-0.500609
0.535662
0.091678
0.602516
-0.109632
0.199146
-0.384338
-0.036870
0.478475
0.538327
-0.449099
0.056613
-0.301483
0.206923
0.406957
0.233674
0.469431
0.471237
0.848916
0.837465
-0.868961
0.513442
-0.791753
-0.003239
-0.028449
-0.750619
0.934144
0.690296
0.189119
-0.329839
-0.178533
0.900233
0.021804
-0.717728
-0.160156
0.057088
-0.685419
-0.679876
-0.030638
-0.735638
0.470265
-0.124793
-0.964305
0.847379
-0.349166
-0.304788
-0.836213
0.288418
-0.296677
-0.781257
-0.933996
0.932984
-0.005174
-0.767106
-0.514900
0.849383
-0.106352
-0.727141
0.311268
0.642769
1.029881
0.012560
0.300965
-0.829749
-0.309023
-0.854345
-0.520190
-0.953892
0.910882
-0.620058
0.598743
0.658692
0.961257
-0.533638
0.350384
0.512844
-0.668680
0.492295
-0.159310
0.662888
-0.501721
-0.785719
0.168859
-0.977676
0.374510
-0.280054
0.834088
-0.818440
-0.209610
0.955416
-0.506940
0.070226
0.483012
0.921319
0.213800
0.472204
0.067511
-0.030409
0.794441
0.682244
-0.040498
1.031964
-0.205137
-0.877171
-0.559845
0.413536
-0.373703
0.679076
-0.644041
-0.304803
-0.663699
0.987014
0.676989
-0.880119
0.507981
-0.984364
0.426728
0.825981
-0.375789
-0.673918
-0.465910
0.365247
-0.823173
0.828463
-0.354685
0.025127
-0.126797
0.163081
-0.366638
-0.266953
-0.363522
0.128133
1.053162
0.287882
-0.291237
-0.819599
0.818223
-0.203415
-0.238803
0.438374
-0.199724
0.630799
0.097758
-0.938057
0.549491
0.011110
-0.651475
-0.115954
0.466516
0.959740
-0.020658
0.644701
-0.811633
-0.029520
-0.497353
-0.408204
0.514049
-0.808999
-0.616824
-0.510059
0.473982
-0.921993
0.408267
0.622692
0.166198
0.892502
0.066662
-0.477979
-0.136794
-0.908666
0.622863
0.442076
-0.216459
-0.366652
0.470114
-0.282555
-0.892408
0.602049
0.293111
0.406646
-0.680259
-0.222873
0.797138
-0.596496
0.899174
0.896706
-0.175859
0.053342
-0.835857
0.980494
0.214699
-0.922136
-0.293892
-0.917636
0.884874
0.378317
-0.608505
-0.705141
-0.185734
-0.566790
0.322953
-0.382505
0.358203
0.667883
-0.305064
0.451516
0.177509
-1.048412
-0.745639
-0.924506
-0.601991
0.724120
-1.013818
0.648524
0.784472
-0.398080
-0.731724
0.172580
-0.225005
-0.840169
0.661943
0.183171
-0.831563
-0.114705
0.858186
0.310980
0.376747
0.396861
0.608139
-0.120139
-0.047875
-0.032031
0.097842
0.922578
-0.040534
0.365495
0.413401
-0.855059
0.189533
0.587214
-0.371744
-0.582500
-0.122614
-0.797420
0.495869
-0.485950
0.064932
0.512877
-0.159919
-0.283198
0.124610
0.706115
0.151538
-0.174152
0.063998
-0.534169
0.960633
0.797200
-0.581417
-0.073245
-0.646137
-0.670972
0.532231
-0.454276
-0.643616
-0.431943
0.347416
0.812639
0.236388
0.243045
0.861081
-0.749257
0.979926
-0.359678
0.607855
-0.843992
-0.697939
-0.702064
-0.637040
-0.758972
-0.011727
-0.941802
0.426049
-0.898008
0.213190
0.820341
-0.470970
-0.937116
0.067668
0.418553
-0.167623
0.521980
-0.450965
-0.897547
0.306207
0.404882
-0.817158
0.166458
0.338135
0.037159
0.160128
0.566909
-0.532658
0.917142
-0.860032
0.295419
-0.446625
-0.907831
-0.566690
-0.944709
-0.376970
-0.799787
-0.825248
-0.405846
0.952579
0.885589
0.925415
0.536366
-0.190282
-0.356184
0.188819
-0.243944
-1.006519
-0.075653
-0.385900
0.405950
0.237180
0.901267
-0.204311
0.061637
-0.299608
-0.014680
0.793506
-0.173372
-0.189894
0.465405
0.901254
0.830348
0.501521
-0.305618
-0.501109
0.921697
-0.155578
0.149736
0.725904
-0.043622
-0.728918
-1.022914
0.153098
-0.693934
-0.570951
0.390065
-0.334819
-0.219156
0.076469
0.148202
-0.735181
-0.598203
0.851211
0.439048
0.856524
0.595828
0.151434
-0.703812
-0.938965
0.113006
-0.215182
-0.917193
-0.633862
0.497193
0.425934
-0.046711
0.859283
-0.046592
-1.018339
0.109858
0.948947
0.838634
-0.043663
0.232308
0.755465
0.630855
-0.065876
-0.074181
0.483933
0.583255
0.732990
0.423587
0.111376
-0.273155
0.288019
0.405525
0.565602
0.553228
-0.591372
0.882321
-0.980218
0.722516
-0.565734
0.776673
-0.625183
0.054629
-0.483834
0.766437
0.162462
0.185913
0.305845
0.104183
-0.527684
0.298824
0.754942
0.156318
0.163150
-0.383098
-0.701498
-0.371084
0.395548
0.876876
0.173244
0.475166
0.675139
0.558735
0.780838
0.860140
-0.895087
-0.734946
0.099539
-0.088823
-0.082553
-0.562730
0.724594
-0.885504
0.150159
-1.117924
-0.295294
-0.152277
-0.748408
-0.012882
-0.557980
0.828077
-0.279737
0.913889
0.581515
0.535494
-0.054030
-0.527436
0.425846
0.048182
0.790499
-0.886545
0.904040
0.807025
0.349453
-0.045990
-0.225974
-0.012921
0.196060
0.950217
0.483525
0.140977
0.431586
-0.225035
-0.359033
0.920265
0.373958
0.935251
-0.613587
0.821074
0.300004
0.188990
0.140116
0.689057
-0.661082
0.141752
0.831499
-0.539894
0.754791
-0.221296
0.167123
0.820423
-0.215914
-0.608415
0.688505
0.194744
0.270617
0.204027
-0.603920
-0.733022
0.079954
0.131654
-0.331722
0.697176
-0.799742
-0.307633
0.129988
1.013736
-0.371625
-0.101436
-0.600282
0.354371
-0.585824
-0.308591
0.739977
0.380223
-0.774565
0.864907
0.314560
0.197349
-0.461396
0.337461
0.541916
0.435610
-0.738865
0.541503
0.582794
-0.554914
0.362332
-0.159889
0.729444
0.108347
-0.236673
0.824813
0.195119
0.646046
0.293187
0.339059
0.087580
-0.600440
0.925087
0.122603
0.111735
0.899757
0.239405
-0.707688
0.528168
0.874954
0.965674
0.194036
-0.015782
-0.374148
0.044330
-0.638278
0.196280
-0.922232
-0.786214
0.233952
-0.203461
0.781078
-0.430832
0.163218
-0.421161
0.026858
-0.180896
0.582274
0.837063
0.942743
0.970828
-0.369966
-0.187515
0.607809
-0.269990
-0.286990
0.985977
-0.961709
-0.054940
0.985005
-0.861533
-0.960989
0.883046
-0.300648
-0.522535
-0.098267
-0.662778
1.154122
0.723358
-0.559007
-0.264808
-0.709703
-0.329581
0.144309
-0.332909
0.225831
0.472094
-0.464218
-0.031492
0.928818
-0.589206
-0.622026
-0.618256
0.419889
-0.811151
1.023439
0.244618
-0.853977
0.488455
0.363268
0.866904
0.854887
-0.392017
0.775373
0.847101
0.437260
-0.790008
-0.054351
-0.783558
-0.753540
0.063737
0.487405
-0.744689
-0.242476
0.768723
-0.393360
0.280274
0.428141
-0.358229
-0.089961
0.286958
-0.804434
-0.081428
-0.595457
0.620666
-0.241725
-0.286019
0.322794
0.341614
0.802890
0.495833
-0.300415
-0.708399
0.790613
1.006196
-0.506439
0.866090
0.636898
0.677767
-0.368161
-0.609565
-0.063999
0.026973
0.829222
-0.722621
-0.671497
-0.629072
0.897006
-0.033419
0.436760
-0.939509
1.033482
-0.226968
0.132575
-0.589377
-0.892456
0.018007
0.275536
-0.535587
-0.182247
0.963450
-0.901729
-0.623061
0.410098
-0.434579
-0.312195
0.778887
0.073030
0.120030
0.004491
0.078486
0.545306
0.799855
0.558701
0.660360
0.454166
0.415876
0.970420
-0.514678
-0.638671
-1.050704
-0.255103
0.914033
-0.988177
-0.849071
-0.126089
-0.684204
0.018812
0.884658
-0.667774
0.597783
-0.245190
0.453566
0.001775
-0.821445
-0.761518
0.901621
0.677562
-0.581200
0.529123
-0.791656
-0.154497
0.583390
1.065784
0.153608
0.879451
-0.788693
0.785145
-0.251516
-0.454519
0.202847
-0.274903
-0.508214
0.691114
-0.723658
-0.375147
0.060233
-0.681799
-0.292273
0.801355
-0.521790
-0.000682
-0.402587
0.595582
-0.488095
0.403914
-0.114825
0.360592
0.874815
-0.760112
-0.257932
-0.112666
-0.661296
0.136204
0.421461
0.335550
-0.547505
0.396969
-0.981709
0.359707
0.146239
0.407171
-0.666050
-0.208620
0.818932
-0.208464
0.257113
-0.365305
-0.902796
0.948001
-0.249464
-0.821590
0.128343
-0.317512
-0.707217
-0.885100
-0.681218
-0.587533
-0.015912
-0.869834
0.386023
-0.945010
0.933373
0.969473
-0.029055
-0.297744
-0.942027
0.459746
-0.030831
0.306406
0.822464
-0.302083
0.307127
0.241864
-0.273029
0.441963
0.849174
0.211876
-0.039050
0.375341
-0.375788
-0.538177
0.513517
-0.074302
0.290052
0.463139
-0.074984
-0.409709
-0.397702
-0.178796
0.727777
0.145367
0.724110
0.084617
-0.047052
0.438131
-0.693638
-0.318187
-0.144733
-0.550977
-0.819882
0.766190
0.719145
0.333223
-0.799545
-0.679447
-0.021748
0.242015
0.737683
-0.314402
0.925311
0.791517
0.547909
-0.925831
0.714594
0.700761
0.768772
0.850870
-0.557043
0.193436
0.564515
-0.027616
-0.804514
0.574584
-0.392372
-0.439134
-0.670700
-0.909773
0.634168
0.375768
-0.005376
-0.365038
-0.874174
-1.000033
0.421485
-0.921281
0.366023
-0.663950
0.860051
-0.881348
0.671152
-0.375157
0.912770
0.334687
-0.252960
-0.843313
0.481805
0.660909
-0.577475
0.621199
0.386025
-0.966184
0.167536
0.339044
-0.231855
-0.452630
1.089539
0.327635
0.098302
-0.659304
-0.132576
0.224409
0.050141
0.270391
0.264566
-0.492758
0.481580
-0.592026
0.674551
0.042935
-0.594029
-0.686383
-0.095549
-0.141593
-0.664377
0.207417
0.746856
0.623117
0.398086
-0.577814
0.451867
-0.650464
0.456899
0.569006
-0.785180
0.212924
0.526543
-0.065571
-0.040206
-0.105051
-0.738355
-0.253667
0.251836
-0.785572
0.463272
-0.782994
-0.374255
-0.470934
-0.813383
0.685492
-0.101847
-0.924000
-0.763270
0.190048
-0.482024
0.190619
-0.345343
-0.136240
0.740789
-0.815325
-0.606050
0.298588
1.014576
-0.728017
0.617118
-0.626651
0.183128
-0.570598
0.094715
0.281544
0.149864
0.054192
0.131804
-0.144932
0.987523
-0.313917
0.479968
0.246932
0.432729
0.809440
-0.686112
0.450983
-0.406803
0.455018
0.198520
0.421021
-0.716800
0.901535
-0.102478
0.477794
-0.634820
0.318279
-0.559811
0.303905
-0.804574
0.079253
-0.429698
-0.018352
-0.628549
0.319625
-0.115805
-0.133073
-0.739110
-0.557387
0.037113
-0.184974
0.127383
-0.221957
-0.293614
-0.584189
0.576925
0.448465
-0.769432
0.936286
-0.833856
-0.170065
-0.585358
0.335572
-0.449848
-0.338519
-0.365719
0.050838
-0.080380
0.468632
-0.599866
-0.299729
0.908058
-0.037334
-0.743915
0.327429
0.814659
-0.074307
-0.139065
0.866901
0.221113
-0.708443
-0.534286
-0.116483
0.983733
-0.705869
-0.409779
-0.283093
0.829097
-0.824833
-0.870297
0.871284
0.551676
-0.852201
0.744834
-0.857906
-0.743459
-0.439248
-0.244445
0.325892
-0.438407
-0.810928
0.381961
0.727065
-0.413098
-0.537533
-0.467445
-0.085309
-0.901129
0.884920
-0.942095
-0.971451
0.357193
0.472636
-0.902406
-0.726820
0.702593
-0.838065
-1.107536
0.708548
-0.907317
-0.709160
-0.536235
0.555405
0.770330
0.870188
-0.075280
0.313943
0.687094
-0.949953
-0.050514
-0.143015
0.854594
-0.864193
0.101519
-0.786972
-0.005434
0.168034
0.305087
0.058246
0.465802
-0.625644
-0.136266
0.973329
0.036597
0.913416
0.240066
-1.008500
0.135173
-0.677227
-0.370539
-0.694588
-0.345578
-0.026664
-0.339726
0.101208
-0.095744
-0.951080
-0.697613
-0.391633
0.098827
-0.894413
-0.151267
-0.453327
0.463332
-0.902667
-0.030635
-0.350661
0.137399
-0.434297
1.003082
-0.425619
-0.464135
0.497168
-0.704026
0.995017
-0.319555
0.843615
1.000707
-0.951932
0.801767
-0.765333
-0.204669
-0.621347
0.758688
0.282933
-0.587819
-0.744045
0.631434
0.247544
0.290491
-0.551717
0.055047
0.374520
-0.316193
0.189996
0.032422
-0.217102
0.544222
-0.496659
0.680418
-0.717592
0.094863
0.137808
0.995961
-0.762530
0.357568
0.626037
0.236948
-0.171613
-0.788845
0.373614
0.666889
-0.253098
-0.267840
0.782243
0.055006
-0.643542
1.133193
0.374738
-0.125031
-0.683261
0.322293
-0.893127
0.710684
-0.540533
-0.454430
0.138354
-0.524109
-0.468864
0.736620
0.922608
-0.931797
-0.131900
-0.739247
0.015569
-0.281209
0.640611
-0.815941
-0.385232
0.875635
0.707895
-0.260071
-0.370772
0.000027
-0.859255
0.186566
0.660214
0.458152
0.843679
-0.608476
0.425028
-0.717869
-0.627751
-0.704000
-0.636756
-0.353251
0.107377
0.334386
0.692882
-0.701304
0.806587
0.758661
-0.459717
-0.535858
-0.790750
0.331721
-0.038453
-0.765606
0.620548
-0.263744
0.351097
0.576717
-0.896504
-0.288301
-0.669403
0.065211
0.647447
-0.128825
0.662409
0.343609
-0.640607
-0.899571
0.207569
-0.687542
-0.994885
0.929279
0.356963
-0.604971
0.190872
-0.695064
0.782472
0.517349
-0.851824
0.881031
0.210348
-0.793192
0.510911
-0.229586
0.463292
-1.052476
-0.036758
0.805652
0.686350
0.554208
-0.218840
-0.048663
0.552527
-0.236608
0.086518
0.005000
0.136197
-0.477401
0.135872
-0.181541
0.601919
-0.191482
-0.719582
0.404085
-1.039067
0.894109
0.487901
-0.652505
0.800240
-0.508537
-0.241472
0.167408
0.746446
0.525201
0.083252
0.627217
0.794612
-0.625884
0.938680
-0.762596
0.153471
-0.667963
0.009394
-0.312151
-0.716246
0.016087
-0.089434
0.918233
-0.236055
-0.752209
-0.758956
-0.312165
0.591267
0.995409
0.941767
0.432816
-0.434078
-0.579983
-0.110501
-0.452706
0.440930
0.417107
0.649167
-0.528230
-0.455645
-0.010835
-0.431692
-0.566142
-0.950464
0.461118
0.421991
0.897090
0.605654
0.126386
-0.928205
-0.930037
0.348651
0.564965
-0.822114
0.419605
-0.906260
0.152578
0.923122
-0.957039
0.750215
-0.516428
0.962880
0.166051
0.372633
-0.438990
0.734213
-0.876116
0.144332
0.366014
0.800826
0.501353
-0.161018
-0.636300
-0.714085
-0.350982
-0.013276
0.164764
0.303775
0.771565
0.214707
0.230355
0.708998
0.804826
0.933979
0.742672
0.027934
0.019534
-0.666070
0.187591
0.111572
-0.175719
0.762450
-0.047932
-0.223166
0.520743
-0.675147
0.402877
-0.735496
-0.087816
-0.464508
-0.662805
0.378674
-0.224265
-0.717132
0.856429
-0.214447
-0.727725
0.613513
-0.942919
-0.659534
-0.480280
0.604372
-0.351121
-0.110311
-0.554681
0.975101
0.382074
-0.541901
-0.959498
-0.146560
0.502813
0.172346
-0.253322
-0.583378
0.190928
-0.364484
-0.664431
-0.336977
0.413281
0.649557
0.542184
-0.636022
0.107595
-0.527486
0.976490
0.724282
0.853380
-0.956713
-0.879051
0.069968
0.647280
-0.623091
0.414883
0.559903
0.517092
0.250119
-0.633395
0.854719
0.194573
0.804115
-0.896015
0.303497
0.358727
0.087163
0.091948
-1.079100
0.018177
0.606174
0.470099
-0.061577
0.793391
0.865375
-0.396897
-0.748722
-0.582878
-0.166848
-0.790301
-0.863106
0.575906
-0.492133
-0.054298
-0.741370
0.928181
0.407102
0.533154
-0.751734
-0.372589
-0.896802
-0.812823
-0.181571
-0.180344
-0.426910
0.694301
0.901688
-0.807823
-0.305421
0.173040
0.667387
0.943466
0.915100
-0.473494
-0.123138
0.386199
0.057878
0.825079
-0.411071
-0.450620
-0.670663
-0.189368
0.921777
-0.835896
-0.150484
-0.155128
-0.564114
-0.893409
0.049392
-0.255192
-0.594436
0.815620
-1.028002
0.704065
0.511530
0.557600
0.759403
-0.350512
0.936842
-0.442643
-0.733507
0.061186
-0.852698
-0.088179
-0.239021
-0.104674
0.786236
-0.976741
-0.398356
0.394871
-0.984513
-0.956154
0.431805
0.776852
-0.350942
0.436414
0.437539
0.938349
0.417462
0.192915
-0.532807
-0.240603
-0.152386
0.824035
0.981529
0.680492
0.561181
1.061740
0.749669
0.515330
0.394423
-0.977967
-0.936331
0.088436
0.337724
-0.281541
-0.322528
-0.232090
-0.271110
0.805608
-0.818020
0.467236
-0.364417
-0.300893
-0.974132
-0.473291
-0.219834
-0.800365
-0.981053
-0.515074
0.816458
-0.823886
-0.447611
-0.587839
0.635811
-0.663508
-0.843091
0.364387
-0.591808
-0.984583
0.403962
-0.109068
-0.953601
-0.901051
-0.911624
0.331898
-0.140616
0.705931
-0.541450
-0.880675
0.160017
-0.003553
-0.227669
-0.938495
-0.375485
-0.365525
-0.996366
-0.504736
-0.186326
0.964325
0.843583
-0.399092
0.208482
-0.868469
0.746730
-0.491593
0.439611
0.274331
-0.533796
-0.505874
1.054864
-0.353820
0.630078
0.260799
-0.592069
-0.000107
0.523593
0.570909
0.005948
0.575371
-0.523285
-0.119830
-0.490416
0.350279
-0.511110
-0.613541
-0.120193
-0.373890
-0.087362
0.798764
0.727129
-0.820542
-0.819488
0.059293
-0.614374
-0.689555
-0.872097
0.369819
0.227277
0.084864
0.604292
-0.833397
0.145850
0.004445
-0.721728
0.936009
0.764781
-0.003040
-0.021480
0.576018
0.405400
-0.931875
0.701725
-0.991116
0.908615
0.061766
-0.258579
0.937963
0.661766
-0.612505
0.266125
-0.232155
-0.879913
-0.977494
0.666425
-0.476956
-0.332493
0.114884
-0.227736
-0.908080
-0.246864
0.384384
0.645823
-0.320042
-0.853235
0.949984
0.291363
-0.332553
-0.822704
0.138987
0.234859
-0.320334
-0.698467
0.709286
-0.290787
0.601256
0.883405
0.621556
-0.686940
-0.254053
0.013890
0.213868
0.054161
-0.464497
0.900120
0.853052
0.390991
0.198114
-1.020340
-0.749596
-0.030058
0.303542
-0.008909
-0.477837
-0.042039
0.823866
0.418313
0.902299
-0.256423
0.392661
0.367647
-0.806568
0.114280
0.491171
-0.680612
0.382173
0.668558
0.378694
0.438056
-0.054857
-0.540620
-0.409707
-0.389447
-0.677809
0.106357
-0.915991
0.543767
0.626678
-0.761504
-0.186787
-0.699695
-0.662628
0.640519
0.232525
0.601733
-0.295199
-0.857880
-0.626282
0.252101
-0.605680
-1.037907
0.014174
0.600719
0.898899
0.899023
-0.357698
0.569474
-0.931902
-0.627287
-0.625985
0.353117
0.228995
0.781416
0.000161
0.963402
0.378192
-0.324855
0.300708
0.340437
-0.809868
0.501431
0.542762
-0.801708
0.531207
-0.971013
-0.869346
-0.544546
-0.936286
-0.224911
0.547123
0.056805
-0.051196
-0.230988
0.486670
1.042128
0.851448
-0.594064
0.363375
0.626071
-0.655893
-0.157011
0.074036
-0.621663
-0.516629
-0.397828
-0.722758
-0.516783
-0.879208
-0.034034
0.191684
0.920436
0.828313
-0.396831
-0.363921
-0.207835
0.091068
0.385632
-0.569280
-0.876352
0.099529
0.403775
0.240457
-0.812380
0.456908
1.170565
-0.472811
-0.857141
0.620925
1.006665
-0.356398
0.809636
0.653700
-0.195392
-0.078672
-0.310411
0.702218
-0.279140
-0.746518
-0.748494
0.026482
-0.929846
0.320052
-0.227976
0.740372
-0.618222
-0.162783
0.010950
0.781177
-0.668351
0.559771
0.213742
0.049450
0.127240
0.255127
0.062451
-0.139794
-0.893377
-0.741193
0.254998
-0.577969
-0.033069
-0.917850
0.345054
0.273268
-0.237789
-0.900494
0.565989
-0.408914
-0.697943
0.480875
0.095637
-0.806948
0.734965
0.843794
0.360854
0.103554
-0.242607
0.685347
-0.499135
-0.140144
0.022247
-0.934139
-0.735039
0.893291
0.569078
0.883981
-0.929345
0.550153
-0.641973
-0.864220
0.827968
-0.721150
-0.533150
1.000657
-0.466356
0.438845
0.450069
-0.115396
-0.219411
0.327589
-0.362547
-1.038685
-0.952077
0.908141
-0.845681
0.995185
0.906268
0.748313
-0.569018
-0.091124
-0.027905
-0.033350
-0.543138
-0.716942
-0.348506
0.609835
-0.134895
0.401749
-0.528251
0.265716
-0.051033
-0.527458
0.605063
-0.248140
0.463847
-0.927212
-0.073861
-0.818853
-0.230902
-0.523140
-0.485825
-0.674671
0.894109
0.317175
1.034251
-0.313257
0.787501
-0.715364
-0.583025
-0.039549
-0.154732
-0.975948
-0.362728
0.565746
-0.111949
-1.026302
-0.380506
0.393841
-0.572148
-0.487395
0.497306
0.751692
-0.260220
-0.319332
0.943988
-0.826540
-0.356153
0.354320
0.824837
-1.018914
-0.650819
-0.364989
0.540101
-1.031880
-0.479146
0.068790
0.822179
-0.574463
-0.836186
-0.224120
-0.625652
-0.120716
-0.175793
0.529310
-0.316672
-0.483411
0.320097
0.177064
0.579137
0.262215
-0.454652
0.084178
1.048878
0.847828
-0.458979
0.904889
0.263838
0.199120
0.302564
0.786126
-0.167133
-0.597960
0.779926
-0.522813
0.484003
-0.160601
-0.900123
-0.772000
-0.727401
0.842606
-0.034049
0.931105
-0.973799
-0.059009
0.843462
0.847999
-0.423382
-0.366503
0.361945
0.020874
-1.019968
-0.445595
0.395628
-0.642212
0.804765
0.737889
0.595689
0.758130
-0.646024
-0.507665
0.113282
-0.342335
0.232317
0.406878
-1.040479
-1.119952
-0.011786
0.359044
-0.171607
-0.472627
-0.523607
-0.683785
0.039553
0.652992
0.627449
0.047480
0.591615
-0.015818
-0.003179
-0.004939
-0.332744
-0.920731
0.337245
-0.902762
-0.479470
0.766891
0.742923
0.623520
-0.571349
-0.149077
0.230794
0.107983
0.422951
0.434193
0.787414
0.304485
0.144159
-0.133656
0.433227
-0.845251
-0.413119
-0.054840
0.200170
-1.017217
-0.046688
0.636586
-0.865842
-0.578866
-0.948275
-0.224653
0.315139
0.962973
-0.898887
0.324559
-0.289429
-0.563341
-1.016419
-0.815429
0.645873
-0.151270
